{{-0.08515139, 0.02085491, 0.009844385, -0.06686712, -0.0815751, -0.011606604, -0.04919892, 0.0025530476, 0.03822952, 0.027762735, -0.07975361, 0.052268922, 0.056466877, 0.062373996, 0.06147261, -0.025107937, 0.04802703, 0.08192734, 0.019156765, -0.06326289, 0.037414495, -0.041926917, 0.10464706, 0.02177737, -0.04526646, -0.09257587, -0.08634432, 0.038507655, -0.051622875, 0.12983689, -0.05975366, -0.036268473}, 
{-0.09131629, -0.031808548, -0.07275934, -0.056618154, -0.06948435, -0.03518001, 0.019234218, 0.03791347, 0.011382616, -0.063936815, -0.07489809, 0.003845401, -0.029836025, -0.005619049, -0.05986269, -0.032591794, 0.026711239, 0.072680146, 0.05593194, -0.021151207, -0.008386377, 0.014897717, -0.09576239, 0.06458779, -0.018874068, -0.059696734, -0.012098059, 0.07998961, -0.011480708, 0.08250759, -0.010032934, -0.04103723}, 
{-0.045897905, -0.046046685, -0.048746653, 0.10217885, -0.006485015, -0.042136844, -0.019911028, 0.042608682, 0.04132679, -0.008401575, 0.019814685, -0.017757066, -0.039521117, 0.013910368, 0.03971879, 0.030777175, -0.10567352, 0.03643987, -0.08697215, 0.051580086, 0.055143367, -0.0054967185, -0.087520845, -0.07333506, 0.027101098, 0.04020001, 0.039337523, 0.06403248, 0.0054714726, 0.008312841, 0.02788162, -0.07455915}, 
{-0.074981056, -0.08783194, 0.058180034, 0.0041683237, 0.07201475, -0.021537937, 0.0055078045, 0.022518322, -0.070720464, -0.08268847, -0.02572006, -0.054366596, -0.02417411, -0.043369986, 0.030215718, -0.0652437, 0.023302486, 0.026932044, 0.0051567745, -0.062126067, 0.016797392, 0.06540013, 0.05744662, -0.07643095, 0.023056727, 0.0041404506, -0.0635343, 0.065574065, -0.052514758, -0.018889539, 0.101686545, 0.042695627}, 
{0.06782185, 0.006417867, -0.015201956, 0.020617992, -0.01959487, -0.0036474466, 0.05807838, 0.04038642, 0.053854834, 0.066800766, 0.057441637, -0.049122896, 0.06271751, -0.05486117, -0.026311968, 0.006615459, -0.042556807, -0.0042202594, 0.062848315, -0.0010010004, 0.01637743, -0.010268746, -0.025039667, -0.07371855, 0.057302352, -0.07397859, -0.054720674, -0.075274475, 0.07405123, -0.034851402, -0.033745494, 0.029540144}, 
{-0.0016048547, 0.0095908055, 0.048251912, -0.047470152, -0.03119016, -0.015668407, 0.075969756, 0.052201133, -0.052373976, 0.032561257, 0.047347814, -0.082258105, -0.019632846, 0.042617857, 0.052315637, -0.013146973, -0.040042352, -0.024045914, 0.008018739, 0.049480066, -0.0027849332, 0.05547904, -0.013333863, -0.06655055, -0.00864433, 0.040836938, -0.034568373, -0.014031693, 0.008159279, -0.04320979, 0.002803308, 0.03143713}, 
{-0.026380362, 0.026057536, -0.032935116, -0.049332954, -0.052341513, 0.0856217, -0.0108479485, -0.015087712, -0.0761044, -0.029049331, -0.046164375, -0.08091607, 0.08071867, -0.0023879036, 0.08292949, 0.06340451, -0.022853931, -0.020257223, 0.03395252, 0.037569106, 0.011086901, 0.07747205, -0.0048656524, 0.05231802, -0.044840366, -0.083452895, -0.041314024, -0.08251358, -0.01625838, 0.05024007, 0.05299772, -0.080663346}, 
{-0.040510777, -0.079352215, 0.033339955, 0.05647699, 0.0061890483, -0.03392775, -0.0017634928, -0.05284452, 0.042670157, 0.041898135, -0.034819048, -0.020314999, -0.073983066, 0.008587629, -0.072866544, -0.0025046698, -0.037246607, 0.027783105, -0.034950003, -0.062660754, 0.012184773, -0.048509464, 0.010018929, 0.053925708, 0.046047837, -0.0811907, 0.017988833, -0.0070797727, -0.012668295, -0.00910627, 0.052184507, 0.032415353}, 
{0.046566013, -0.081973165, -0.045564584, 0.032820307, 0.036452733, 0.029755957, 0.025681987, 0.097623385, -0.0075566145, 0.051746745, -0.06500381, -0.01391425, 0.03286539, 0.051164493, 0.028179318, -0.073205605, 0.07511406, 0.027808359, 0.07259225, -0.008664578, 0.02091187, -0.0021908095, -0.062481888, -0.0057493, 0.012244056, 0.007191664, 0.08265115, 0.05132635, -0.064241484, -0.003181523, 0.0380573, 0.054289356}, 
{0.012434069, 0.07367593, -0.02667448, -0.017053386, -0.074337855, -0.07196315, -0.048375204, -0.05843626, -0.03862762, -0.014990163, 0.008343466, 0.07089403, -0.0049403235, 0.052293196, 0.05938767, -0.030108374, -0.09390637, 0.0026664464, 0.068087935, 0.05324948, 0.036131557, -0.059335243, -0.0055922433, 0.07566653, 0.033899818, -0.017201165, 0.0782673, -0.08133307, 0.06023548, 0.022620352, -0.022478692, -0.052638553}, 
{-0.01917372, 0.06470697, -0.040185105, -0.050218318, -0.02985816, -0.013626628, 0.070047215, 0.09853142, 0.07069848, 0.058346376, -0.07976996, 0.010764241, -0.07118452, -0.014125824, -0.06287417, -0.032451898, -0.047722496, -0.085379705, 0.055251718, -0.0131309405, -0.089112215, -0.054711115, 0.021869013, 0.04209365, 0.04115224, -0.06329906, 0.05479053, -0.07257397, -0.070565075, 0.056372873, 0.0681222, -0.030495986}, 
{-0.08137592, 0.038250912, -0.061403543, 0.09697479, 0.041460156, 0.0439585, -0.017303228, 0.0054369103, 0.06575114, -0.016053556, -0.042412575, 0.038565516, 0.062001616, -0.047446698, -0.013992712, 0.019770022, -0.03512357, -0.056038015, 0.073512085, 0.045668706, -0.014051382, -0.03563558, 0.015626976, -0.009266995, 0.05259094, 0.053587507, 0.094289005, -0.045962255, -0.0009596683, -0.045518816, -0.0055657616, 0.07072213}, 
{-0.042087685, -0.035670288, -0.0063929036, 0.07923509, 0.08172065, -0.06377908, 0.064237416, -0.028053511, 0.014102362, -0.0060796407, -0.01997801, -0.03092897, 0.056197315, 0.0018415004, -0.030496132, 0.048370987, -0.07015311, -0.09976339, -0.0079053575, -0.073014915, -0.054672133, -0.034014504, -0.08840898, 0.038185626, 0.06521499, 0.014965654, 0.048639763, 0.07919617, 0.077607706, -0.010188853, -0.0039868103, 0.050338194}, 
{0.062740274, -0.040125493, 0.027893536, -0.05560001, -0.051369693, 0.036975548, -0.061589103, 0.013785922, 0.04825291, -0.010297929, 0.06795889, -0.010397084, -0.033989053, 0.07951972, -0.03630731, -0.07220708, 0.045756776, -0.07327712, 0.0023657726, -0.020706482, 0.06452332, -0.042239014, -0.056251287, -0.043381568, -0.07729937, 0.012958915, 0.0129746925, 0.012971908, -0.013289088, 0.041199695, 0.03711865, 0.084779605}, 
{0.04651006, 0.03530571, -0.069675304, -0.04473634, 0.05349949, 0.0715868, -0.08076972, 0.06534278, 0.07625099, -0.01812045, 0.039199173, 0.06353776, 0.016887322, -0.04387067, 0.038746625, -0.011288772, -0.0044922465, -0.005609981, 0.014989603, -0.03550238, 0.0587187, -0.004237154, -0.019410688, 0.07840656, 0.03712414, 0.0448422, 0.08053061, -0.033089496, 0.02929154, -0.0048935367, -0.0016985701, -0.058836874}, 
{0.0006470856, -0.026330039, 0.03490725, -0.06251404, -0.038047247, 0.083883345, -0.0011747926, 0.039689012, -0.020046895, -0.024892906, 0.054510877, 0.0067374557, -0.020405293, 0.05990772, 0.074131414, 0.0549746, -0.02440843, 0.062433586, 0.07551355, 0.007360041, 0.06322025, 0.078511156, -0.07856221, -0.051759623, 0.0605945, -0.027757209, -0.07753663, -0.009340525, -0.023235656, 0.01949563, 0.06881205, -0.023581378}, 
{0.07418194, 0.011782793, 0.0070465505, 0.03127741, 0.08591771, 0.065983295, -0.03774922, 0.10043372, 0.018632328, -0.06514694, 0.06268136, -0.05960086, 0.011938162, 0.07690506, -0.004739873, -0.07539845, 0.034187835, 0.04160193, -0.0010463423, -0.019766763, -0.01962575, 0.07788116, -0.06809632, -0.08074792, -0.018805047, 0.027099796, 0.07553985, 0.043146357, -0.025721371, -0.021584237, 0.04673284, 0.020526573}, 
{0.028793583, -0.016745511, -0.013427064, -0.021045761, 0.0621181, -0.05405971, 0.02116783, 0.006627062, -0.033754148, 0.036670323, -0.054087337, -0.079703294, 0.015873216, -0.006808974, -0.027343191, -0.076460965, -0.011731543, 0.049558934, -0.0379339, -0.008388832, -0.054722775, -0.076125875, -0.062073383, 0.014941327, 0.042586572, -0.062029816, 0.0021555808, -0.06581037, 0.019978503, -0.067829266, -0.0015943326, -0.047789656}, 
{0.060455177, 0.021049075, -0.03993211, 0.0044011427, 0.041580066, -0.02063419, -0.017241552, 0.08421925, 0.06772591, 0.03376907, -0.005511023, 0.070521355, 0.02196803, 0.04575731, -0.03774418, 0.06079913, 0.12716104, 0.07323803, 0.073394, 0.07345648, 0.04043522, 0.0771592, -0.032169957, -0.013689294, -0.08917694, 0.006392266, 0.016129404, -0.052667934, 0.022084977, 0.06781711, -0.030229079, 0.053917453}, 
{0.00052866, -0.071703665, 0.07395974, -0.0635217, 0.039223447, -0.009241685, -0.004253313, 0.015767843, -0.08498996, -0.06414077, -0.015130356, -0.020765081, -0.058011234, -0.007111527, 0.024184681, 0.053125966, 0.022715969, 0.049185496, -0.0038490258, 0.02138833, 0.07646698, -0.0769517, -0.08334998, -0.05934055, 0.056336712, 0.051132794, -0.016116612, -0.081387565, 0.026581684, 0.018190451, 0.02007604, -0.0007867813}, 
{0.07680557, -0.022019258, 0.015431702, -0.024323963, -0.012288041, -0.06437123, -0.08144234, 0.05029871, 0.07621117, -0.07372533, 0.08143778, 0.032172494, 0.0768826, -0.08504387, -0.021115616, -0.0052935667, 0.088520594, 0.022020198, 0.07418265, -0.048324637, 0.08440958, 0.011080547, 0.045609675, -0.037731566, -0.065972194, 0.0056713857, -0.037330743, 0.08266179, 0.023748582, 0.01303888, 0.085547745, 0.07403648}, 
{0.016256336, -0.018343395, 0.01778952, -0.061682977, 0.053036883, -0.062223233, -0.05284133, 0.07093178, -0.07077419, -0.060493987, -0.0007779449, 0.0010413677, -0.009895943, -0.028247848, -0.021328136, -0.006225172, 0.008232943, -0.048217196, 0.06799944, -0.0475755, 0.05657357, -0.0101389475, 0.017966934, -0.06823515, 0.025696164, -0.07546845, -0.060446616, 0.07093303, 0.08537304, -0.072140016, 0.088036604, -0.009315476}, 
{0.034403276, -0.08802132, 0.0649022, 0.073478974, 0.07837148, -0.07473788, 0.021265574, 0.08965593, -0.046044644, -0.08605984, 0.07980281, -0.06520847, 0.024367452, 0.0075779334, -0.011904322, 0.032108888, -0.001413704, 0.070165224, -0.0067092986, 0.006857395, 0.07334634, -0.07635113, -0.028562514, -0.03579399, 0.0029455982, -0.067046545, 0.0323906, 0.0064506605, 0.0173212, 0.028512102, 0.07354637, -0.034987967}, 
{-0.083085954, -0.062136997, -0.06749718, -0.011298972, 0.018789984, 0.027020901, -0.076866835, -0.07022185, -0.09076791, 0.067279726, 0.06615217, 0.007535234, -0.043016043, -0.018121123, 0.06729764, 0.07328705, -0.019743918, -0.0033109582, -0.022382429, 0.05498542, 0.023705143, 0.034327324, 0.078658074, -0.0699022, -0.072855756, 0.052330453, 0.039575502, -0.07246528, -0.051026072, -0.034478873, 0.014365738, -0.08155578}, 
{0.061951876, 0.074286714, 0.065660134, 0.04697766, 0.02439081, -0.0073678866, -0.0628068, 0.061682925, -0.012000455, -0.040183824, 0.02102536, 0.049947515, 0.056308955, -0.071081, 0.005857922, 0.005059975, 0.07376789, -0.070634544, -0.029822772, -0.08526736, -0.06596717, -0.043832526, -0.055553354, -0.013613038, 0.020232797, -0.061649777, -0.07339323, 0.0070768595, -0.051610496, 0.039987482, 0.089158736, -0.001439847}, 
{-0.083673835, 0.038375072, -0.016811691, -0.015544041, 0.07466687, -0.041044913, -0.04945328, -0.0017180616, 0.01742954, 0.07312424, 0.043888226, 0.054131836, 0.007504225, 0.070040554, -0.0389792, -0.023544766, 0.13141522, -0.035098992, 0.0038783518, -0.03365105, 0.030061964, 0.07913948, -0.0536481, -0.028270211, -0.021549784, -0.044114128, -0.003974541, 0.049721032, 0.025726302, 0.04528998, -0.0574574, 0.08068229}, 
{0.03328996, -0.058908556, 0.039862543, 0.06048801, -0.035257313, -0.0042638257, -0.07488962, 0.05454201, 0.022683645, 0.037478875, -0.024039298, 0.060820803, -0.015592754, 0.008056574, 0.0055314004, 0.033483397, 0.08866851, 0.027696203, -0.03519877, 0.02835206, 0.03721463, -0.023039581, 0.021524157, 0.0514106, 0.06483358, -0.07776181, 0.04429767, -0.018447526, 0.0778248, 0.04586754, -0.022636447, -0.0831556}, 
{0.06327409, 0.05649756, -0.0057307556, 0.07628282, -0.06626214, -0.018889159, 0.05130759, 0.015151695, -0.046356786, -0.0036356074, 0.023796216, -0.016287692, -0.0857935, 0.065825716, 0.026110508, -0.07339962, 0.097301304, -0.011952605, -0.030708719, 0.04064451, 0.062286053, 0.047082774, 0.04092668, -0.023372069, -0.07510271, -0.05744313, -0.0048995623, 0.049300984, 0.048150055, 0.042739093, -0.041763097, 0.007295102}, 
{-0.039894033, 0.013849571, 0.04049827, 0.07585608, 0.06804608, -0.05148216, -0.051905684, -0.050682195, 0.016900985, 0.06950363, 0.040711433, -0.02319128, -0.08531801, -0.025692206, 0.05299142, -0.045767676, 0.13581514, -0.039031442, 0.061196122, 0.07721634, 0.07696977, 0.022866648, 0.08447713, -0.08570705, -0.053625956, 0.037873916, 0.00671051, -0.036074094, -0.03251182, -0.018197574, 0.030853871, 0.07377848}, 
{-0.08542899, 0.04055694, -0.0025860593, -0.042685468, -0.018814862, -0.014671646, -0.059015103, 0.018820897, 0.020932708, 0.062735155, -0.05098868, 0.0775834, -0.042282596, -0.047622453, -0.068552524, -0.005769358, 0.022913275, -0.08681844, -0.03707515, 0.027928881, 0.060215686, 0.05286514, -0.016555108, 0.04632218, -0.06196206, -0.030322107, 0.030954624, -0.050555162, 0.06558665, -0.0048680003, -0.051411055, 0.0015809089}, 
{-0.027292602, 0.076580174, 0.018595487, -0.06458304, 0.07695882, -0.015840799, 0.014037348, 0.08529628, -0.035007663, -0.088911235, -0.06432903, 0.011168212, 0.023909055, 0.051544666, -0.025371693, -0.020428672, 0.022272805, 0.040116396, -0.038199153, 0.04734394, 0.047628038, -0.07975339, -0.06817442, -0.075589806, 0.06682648, 0.03587564, -0.057211436, -0.004472986, -0.012532053, 0.061888445, 0.041261125, 0.05926007}, 
{-0.039515946, 0.010299116, -0.045548562, -0.05300816, 0.05394572, 0.018321142, 0.037848078, -0.00038951205, 0.05829471, 0.015589773, -0.05505546, 0.037659198, -0.014639147, -0.06666653, -0.0050810575, 0.05650172, -0.010372345, -0.0923827, -0.023424948, 0.084422976, -0.04675564, -0.049080975, 0.07835049, 0.009260267, 0.044354197, -0.03096136, 0.010009714, -0.02273129, -0.025734436, 0.06305039, 0.06346286, -0.014983714}, 
{-0.06114325, -0.02742418, 0.077597946, -0.11235576, -0.038443103, 0.078666896, 0.042949334, 0.002827787, 0.018617576, 0.033549085, -0.057630267, 0.04677181, 0.07927479, 0.018101528, 0.08493997, -0.012704326, 0.041506816, 0.087980144, -0.013485239, 0.016062245, -0.027366864, 0.040317114, -0.05050128, 0.083432466, -0.039588843, -0.004008977, 0.034480516, -0.054540798, -0.06471679, 0.08219184, -0.07252113, -0.08584956}, 
{0.074671015, -0.05731932, 0.050068125, 0.046178106, -0.030707624, -0.0004272014, -0.08104341, -0.030878028, -0.033913773, 0.017130781, -0.05768934, -0.06815584, -0.017861709, 0.07817741, 0.0058209673, 0.048397794, -0.037565, 0.03411282, -0.018908573, 0.05575387, -0.07208051, 0.060653184, -0.00097306183, 0.08021346, 0.06243264, 0.008118765, -0.05505068, 0.083456725, -0.06623608, 0.037822757, 0.07889459, -0.037518565}, 
{-0.06389135, -0.0680966, 0.07841702, 0.08629911, -0.07214734, 0.081699505, 0.053098023, -0.02377483, 0.064323485, -0.052704807, 0.05313079, 0.06960566, 0.01734256, -0.04851416, 0.01648707, 0.024794156, -0.09892367, -0.09516081, 0.07306516, -0.011680149, -0.061942246, -0.009992998, -0.07905086, 0.021295413, -0.026768604, 0.068531774, 0.04452345, -0.07607552, -0.06738277, 0.016475923, -0.0059351684, 0.019126482}, 
{-0.028882733, 0.048298575, 0.028310038, 0.020956688, -0.029545017, 0.077555194, 0.040624052, 0.0884674, 0.034880742, 0.0717084, 0.031156756, 0.05476138, -0.041818045, 0.057338893, -0.054277502, 0.03192519, -0.021310331, 0.0046576574, 0.051893935, -0.07491262, 0.0023021908, -0.06947241, -0.07949646, -0.051017154, 0.060446277, 0.03845632, -0.034304135, -0.063572414, 0.076661125, 0.018395033, 0.08342071, 0.028776743}, 
{0.023198152, 0.04731139, -0.070847556, 0.10725938, 0.037546337, -0.0023472458, 0.07781446, -0.006378829, -0.050888397, -0.015829982, 0.07261826, 0.022575177, -0.04736508, 0.06715867, 0.04360722, -0.02530648, 0.052036956, -0.034039054, -0.0407263, 0.08259256, -0.0015824476, -0.040293254, 0.042592313, 0.046851218, 0.053342234, -0.050627887, -0.029743984, 0.05597055, 0.016603, -0.00835965, -0.018283928, -0.06830436}, 
{-0.057770364, -0.027540604, -0.008191459, -0.04729023, 0.042454034, -0.08567007, -0.0587191, 0.046008013, 0.056136247, 0.04682726, 0.0051371157, 0.086396396, -0.008793175, -0.061231714, 0.07635836, -0.047900595, -0.07661011, -0.04468408, -0.007521219, 0.055281147, 0.04841373, 0.041189093, -0.066946805, -0.0064334795, 0.0328182, -0.076346315, -0.049346644, 0.018075764, -0.03354664, 0.043293826, 0.006103542, -0.06279616}, 
{-0.058534354, 0.035670202, -0.033193003, 0.0332944, 0.047493875, 0.06196876, 0.040387616, 0.099705845, 0.0737001, 0.052774258, 0.07323448, -0.0465878, -0.018256612, -0.0805212, -0.07180191, -0.001091869, -0.023997113, -0.06421926, 0.053501803, 0.020218, -0.021885399, 0.011138777, -0.08672912, -0.07151961, 0.06460217, -0.083631456, 0.009259706, -0.052317895, 0.0056718974, 0.04194423, 0.10892502, -0.038866255}, 
{-0.014806704, -0.059100594, 0.0504124, -0.024337731, -0.053640727, 0.041031867, -0.038216703, 0.0282989, 0.04029874, 0.040679052, -0.010049276, -0.017830774, 0.031322636, -0.000856854, 0.08134116, 0.052933257, -0.006326615, -0.02367981, -0.06317281, -0.051437497, -0.10356796, 0.068256475, 0.06293576, -0.013345279, 0.04743757, -0.02771006, 0.07641081, 0.04922968, 0.08899645, -0.0017725728, -0.010326194, -0.07364167}, 
{0.003168089, -0.015040511, -0.0026398674, -0.020228822, -0.07022077, -0.010491215, -0.077588394, 0.015953133, 0.041998643, -0.091435015, -0.06057929, -0.07077764, -0.035929397, -0.0458253, 0.034565203, 0.076950565, -0.09267426, 0.041033205, -0.032876387, 0.015335694, -0.092706986, -0.037026107, 0.037064016, 0.069413364, -0.017897392, 0.012586909, 0.0048989854, 0.029210605, -0.031491198, -0.023129497, 0.072540715, 0.014083371}, 
{0.002578576, 0.0073890965, -0.03222686, -0.05889041, 0.028264925, -0.081467815, -0.07584852, 0.10485726, 0.021468334, -0.0645293, -0.061057158, 0.02430357, -0.031107694, 0.055841193, 0.04047762, 0.06784547, -0.012599394, -0.009716558, -0.050449096, -0.06415282, 0.048461728, 0.07489735, -0.10637781, -0.08652996, 0.06072878, -0.03301169, -0.029984163, -0.07845415, 0.05642997, -0.039326847, 0.09442448, 0.02841328}, 
{0.0066066673, 0.002829602, 0.07206099, 0.006778907, 0.035389565, -0.0552823, -0.046417393, 0.011053827, -0.08810269, -0.051297873, 0.0054156706, -0.074471876, -0.060953196, 0.04759504, -0.06594654, -0.039424434, -0.030486317, 0.04815217, -0.03245829, -0.026838977, -0.05957865, -0.021562446, -0.02867532, -0.08022555, 0.037276167, -0.087015405, 0.10143193, -0.04959612, 0.026999235, 0.1008742, 0.066999555, -0.030117888}, 
{0.07917846, -0.045458816, 0.048841864, 0.0067889555, -0.018974103, 0.0075194016, -0.05529444, -0.020619527, -0.0080269715, -0.0920406, 0.03251479, 0.012620896, -0.002107896, 0.004002668, -0.054371014, 0.04982306, 0.049863804, 0.04754025, -0.09086224, 0.040165484, -0.074931584, -0.05284604, 0.063567735, -0.031381667, 0.041659128, 0.025461825, 0.08854561, -0.0036576092, 0.047150504, 0.10246185, 0.021678608, -0.073688835}, 
{-0.07013335, -0.02182568, -0.06928114, 0.07811665, -0.029862765, -0.028319187, 0.057181224, -0.024990205, -0.07529213, -0.07603571, 0.046617135, -0.08613117, 0.04605587, 0.0623084, -0.024870142, -0.014105036, 0.024626978, -0.085674934, -0.06272879, -0.010856308, -0.09394727, -0.083574526, -0.010332107, -0.047130544, 0.024652427, 0.079005435, 0.047839925, 0.040716127, -0.024311995, 0.07428789, -0.03201586, 0.08062552}, 
{0.060626283, -0.06601291, -0.02069281, 0.058436245, -0.0522199, 0.022381373, -0.085713886, 0.095342524, 0.010349854, 0.006479006, 0.036899075, 0.06598228, -0.015033618, -0.0032806024, -0.07527528, 0.05182809, 0.05372927, -0.03491097, -0.0031330343, 0.040656656, -0.0037156325, 0.009792808, -0.053859994, 0.0586005, 0.02372817, 0.01056236, -0.037688218, -0.08127129, 0.07258064, 0.08883533, -0.050400645, 0.014583252}, 
{-0.010070651, -0.03586097, -0.03891199, 0.06012055, -0.013752662, -0.067371726, 0.007940076, -0.038664058, 0.073698364, 0.019034212, 0.009529717, 0.008187376, -0.025712937, -0.07680921, -0.05831711, -0.044624615, 0.0031227162, 0.0213991, 0.047218844, 0.055721074, -0.07972978, -0.0591938, 0.07297629, -0.030881934, 0.06564771, 0.0047792406, 0.07489241, -0.03269042, 0.094242, -0.04649838, -0.0006931367, -0.027656231}, 
{0.0715003, -0.06145777, -0.060088288, -0.03994096, -0.01827272, -0.018765457, 0.0017970875, -0.049327236, 0.08048386, -0.08350689, -0.042237833, -0.05310205, 0.015915006, 0.033245884, -0.04390963, -0.06287198, 0.009076786, -0.054546986, -0.02596496, 0.016649336, -0.0049283216, -0.028432438, 0.07639487, -0.021789342, -0.06208838, 0.022647936, 0.0864028, -0.067341805, -0.04101613, 0.056592498, 0.04644438, 0.06097403}, 
{-0.041343763, -0.04946175, -0.073483, 0.07792912, 0.03244789, 0.033733085, -0.027191535, -0.048253443, -0.05559025, 0.016898936, -0.05827691, 0.04003364, -0.015237704, 0.02504234, 0.045106784, 0.06818119, 0.028903509, -0.075164884, -0.046089534, 0.02152361, 0.03516693, -0.042416405, 0.03760535, 0.022323519, 0.019787475, 0.05583857, -0.052439764, -0.04278041, 0.08378313, 0.05344159, 0.059406754, 0.0451224}, 
{-0.055486, -0.076089606, 0.04716283, -0.028209914, 0.070950836, -0.06798756, -0.036768124, 0.022888394, 0.030402755, 0.011740624, -0.04561998, -0.074671336, -0.049837552, -0.047556773, 0.05100347, 0.05276873, 0.07336224, 0.022007044, 0.051669728, 0.060236514, 0.037890296, -0.006681414, 0.0051041353, 0.002880372, -0.0056103272, -0.079007976, 0.0034696292, 0.043520987, -0.05788811, -0.08968676, -0.022501366, -0.077138625}, 
{-0.06030352, 0.028595433, -0.054847024, -0.0064380183, 0.07090543, -0.04392615, -0.04568471, 0.07387505, -0.03556517, 0.035357878, -0.008242004, -0.0022924915, 0.005546659, -0.07716464, -0.008568652, 0.028870808, 0.0026570344, 0.049894292, 0.001839595, -0.060076974, 0.091773614, 0.06215685, -0.040557995, -0.05006003, -0.046742924, -0.03557209, -0.040529832, 0.07881756, 0.023578826, -0.07944177, 0.024029424, -0.035497673}, 
{-0.07551281, 0.0799368, 0.07182883, 0.08237331, -0.06239265, -0.02353087, -0.023150459, 0.09330031, -0.009639245, -0.07330044, -0.017542265, -0.055287562, 0.010188773, 0.026656494, 0.044752926, -0.0773676, 0.062476695, 0.08264985, 0.063171215, -0.0379973, -0.076364405, -0.030367376, -0.046823077, -0.030294485, 0.056915406, -0.05709064, -0.054313533, 0.07110895, -0.025616592, -0.062550545, -0.044380657, 0.054650918}, 
{-0.026878968, -0.0040576607, -0.084758475, 0.0013236422, 0.07210912, 0.012725003, -0.028040484, -0.06871726, -0.021371266, -0.05772071, -0.036511514, -0.004955396, -0.03309276, 0.041153744, 0.052676693, -0.07396857, 0.11186011, -0.038044665, -0.02173158, -0.020818308, 0.070672974, -0.04602491, 0.038073976, -0.007911317, 0.07382024, -0.023607485, 0.03368595, -0.08492477, 0.05402767, 0.052269008, 0.08350695, 0.04946752}, 
{0.0007105842, -0.018063344, -0.0076885074, 0.091283984, -0.053819742, 0.05876267, 0.06446171, 0.05431098, 0.07331844, -0.0051767305, -0.041709892, 0.084729925, 0.07707462, -0.059887797, -0.012493856, -0.073874176, 0.025086908, 0.03118897, 0.022028256, 0.059242085, 0.029606706, 0.034279414, -0.03382482, 0.073855296, -0.08729895, 0.03615769, 0.08212471, 0.006525792, -0.030479109, 0.029757451, 0.011898533, -0.07785832}, 
{0.02636331, -0.068321235, -0.082996346, -0.008947686, -0.025936779, 0.029816248, -0.014831275, 0.06512523, 0.028522719, 0.01650815, -0.054252908, -0.0060772896, 0.07052001, -0.053842414, 0.04459685, -0.015659606, 0.08018548, 0.054109782, 0.004893417, 0.02802591, 0.08706868, -0.034525037, -0.08053253, -0.0445903, 0.046112284, -0.03460627, -0.04076067, 0.047135994, -0.074270345, -0.0076913564, 0.040258996, 0.0085878745}, 
{-0.08985884, -0.0668952, 0.060398147, -0.052627165, -0.07452145, 0.0065614134, -0.041065913, 0.045531277, -0.059442703, -0.06884014, -0.057605468, -0.04611313, -0.057133608, -0.009409778, -0.054243185, -0.025147153, -0.03172673, 0.01666657, 0.05966539, 0.053054646, 0.04469088, -0.068928555, 0.07523205, -0.08421286, -0.066767104, 0.059034288, 0.04563188, 0.054299176, -0.022975123, -0.103194185, -0.043972068, 0.05166194}, 
{0.040597655, -0.04113493, -0.03209005, -0.06774181, 0.0072644427, -0.004858084, 0.06308448, 0.02935328, -0.04604713, -0.010793387, 0.067073494, -0.040611334, 0.007076651, -0.05807326, -0.02645902, 0.026701631, -0.030152572, 0.028588392, -0.024360606, 0.057355523, -0.075997405, 0.036715183, 0.08685292, 6.194413e-05, -0.053397365, 0.063113496, 0.05139414, -0.07624423, -0.061529044, -0.08352473, -0.03491349, -0.07309656}, 
{-0.03547371, 0.05348162, -0.049568802, 0.05755625, 0.022452876, 0.08219144, -0.04397046, 0.04873076, -0.01992031, -0.08679289, -0.03261681, 0.001739651, 0.06131661, -0.058847547, -0.073063664, -0.020091167, -0.00026131887, -0.04408522, 0.01674339, -0.07838948, 0.011448569, -0.075260475, 0.075980484, -0.049031902, -0.056507707, 0.011765505, -0.015793083, 0.081845134, 0.036035854, -0.07424201, -0.02309726, 0.08470136}, 
{0.055783316, -0.044527892, -0.077195615, 0.041384704, 0.072231665, -0.004284531, -0.05039161, 0.00090869, 0.014675306, -0.059828248, 0.0051140934, -0.009073116, -0.02063004, -0.046825226, 0.061356753, -0.012061288, 0.106712684, 0.027878033, 0.04898839, 0.06358673, -0.071285434, -0.042509425, -0.08033347, -0.07436616, -0.026529923, -0.090229765, 0.06066224, -0.056499023, 0.07389396, 0.037417527, -0.0040284684, 0.079950035}, 
{0.03766473, 0.068996705, -0.019959837, 0.0832645, -0.018085673, 0.07502781, 0.0847498, -0.021160815, 0.047185775, -0.06735591, 0.002775006, 0.025347285, -0.016781442, 0.049842983, -0.066220395, -0.017377783, 0.13548873, 0.051665775, -0.03714843, 0.084700555, -0.03397186, -0.07254498, 0.07369586, 0.085549, -0.070711, -0.0026222747, 0.0067729806, -0.051475614, -0.05400931, -0.024809267, 0.054208115, -0.04095714}, 
{-0.0532755, -0.0765219, 0.029165104, -0.045228586, -0.03163518, -0.05982001, -0.044018816, 0.055164486, 0.047072113, -0.08403426, 0.01592686, 0.08496593, -0.08027215, 0.050822526, 0.077527374, -0.017477628, 0.098195836, -0.039651003, -0.0010655134, -0.065897174, -0.018391928, -0.07000417, -0.01263797, -0.00291349, -0.018363724, 0.05670707, 0.0333118, 0.054440573, 0.10007295, 0.062618956, 0.042554863, -0.06971678}, 
{-0.08155464, 0.037435077, 0.047781393, -0.0026253057, 0.007616937, 0.044868752, 0.041944176, 0.04260686, -0.07175144, 0.055228513, 0.06599699, -0.0011201948, 0.0075708106, -0.04979764, 0.021832027, 0.0013640546, -0.04001855, 0.04879468, 0.06595912, -0.039618924, 0.03669088, -0.0053044474, -0.06341118, 0.02297964, -0.053145126, 0.05412929, -0.021332039, 0.018120028, 0.08530296, 0.014078928, 0.040467877, 0.03328608}, 
{-0.046983704, 0.0721842, -0.0024776533, -0.02639277, -0.0010095239, 0.048921123, 0.059974596, 0.0022574156, -0.02316523, -0.022799969, 0.06494342, -0.056231614, -0.0018119738, 0.058405027, 0.062061504, -0.07497787, 0.036452506, -0.057483263, -0.0018637333, 0.003241703, -0.08352326, 0.008244933, -0.027828969, -0.0063311458, 0.07973403, 0.03347761, -0.0092764, -0.021978647, 0.07533528, -0.066306196, 0.0888602, -0.026361626}, 
{-0.029661471, 0.0041841543, -0.06264829, -0.037401453, 0.06821661, -0.043301787, 0.054034725, -0.02593043, -5.2310188e-05, 0.06407897, 0.0009250343, -0.009175405, 0.07380809, 0.037631214, 0.0024973154, 0.015505509, 0.050109986, 0.040137205, -0.049848024, -0.04765074, 0.004365987, -0.016845273, 0.010023041, -0.03418746, -0.008806905, 0.05919619, 0.08048875, 0.083559364, 0.09375197, -0.05214781, -0.006077665, 0.032058433}, 
{0.04118462, 0.048152052, 0.020893276, 0.039274912, -0.02400738, -0.047373876, -0.03042696, 0.032699563, -0.022266407, -0.015557389, 0.08193304, -0.06098844, 0.07127079, -0.03863711, -0.057256524, 0.017635526, -0.031484935, 0.042542353, -0.049811017, 0.011695407, 0.027847804, 0.05236655, 0.03183533, -0.019490227, -0.08151725, -0.08273494, 0.010217741, 0.0035928786, -0.080986254, -0.0072010723, 0.00320839, -0.050663665}, 
{-0.012469553, 0.024175545, 0.06344131, -0.0677434, 0.018038124, -0.073634945, 0.07123661, 0.039430287, 0.036390446, -0.06863763, -0.00910008, 0.043077037, -0.06203247, -0.004416615, 0.048939362, -0.018166656, 0.05184017, -0.10136427, 0.015772196, -0.03811617, 0.037971694, 0.021879457, -0.035504766, -0.04107603, -0.041954387, 0.022993853, -0.0660698, -0.032280892, 0.07498186, 0.13211979, 0.07484979, 0.034713082}, 
{-0.09110139, -0.011385964, -0.049604647, -0.042027295, 0.05161813, 0.08549541, -0.04474778, -0.05521016, 0.06955668, 0.073328294, 0.03929913, -0.026999678, -0.014084093, -0.031162824, 0.08464792, -0.028236415, -0.016612139, -0.0733491, 0.029669287, -0.044620242, -0.05238745, -0.057536125, -0.004933556, 0.07693331, -0.042500902, -0.042224374, -0.0003575434, -0.083813265, 0.07885386, 0.024064424, 0.0040456154, 0.027299732}, 
{0.019680737, 0.028776934, 0.050966322, -0.009153684, 0.0046386644, 0.07314046, -0.07874912, 0.009072495, -0.028513098, 0.079347216, -0.05818674, 0.06792855, -0.037392076, -0.056013513, 0.03195648, 0.05915288, -0.059504777, -0.092587374, -0.009410571, 0.039106205, 0.046994984, 0.06501341, -0.07948288, 0.035799168, 0.06471422, 0.07829326, 0.061319772, -0.02648357, -0.004233895, 0.06264429, 0.11149416, -0.050131615}, 
{0.0043147756, 0.021148387, -0.03382253, 0.072928704, 0.024748445, 0.040074125, -0.06617637, 0.08626683, 0.014380827, 0.033451457, 0.042613372, -0.06216959, 0.046514884, 0.01528509, 0.050907493, 0.0063644983, -0.034522034, 0.059676282, 0.04487205, -0.02379138, 0.04064697, -0.04493138, -0.0746151, 0.0076369047, 0.06392987, 0.07516675, -0.058394644, -0.008983254, -0.053085852, -0.04369583, -0.040158726, -0.06044004}, 
{-0.05730059, -0.0062254155, 0.042398304, 0.00072906585, 0.03947462, -0.06890279, -0.08386381, -9.163956e-05, -0.07330103, -0.08489925, 0.07718161, 0.021871895, 0.08296405, -0.05032556, -0.0068952814, -0.036320217, 0.020437736, 0.02424635, 0.05019406, -0.026902862, 0.04088554, 0.0736616, -0.09045441, -0.005711496, 0.060794346, -0.035696033, -0.01847581, 0.068350255, 0.09329243, 0.051963903, 0.09682821, 0.04895881}, 
{0.031458024, -0.083193764, 0.026794687, -0.002567667, 0.0071084946, -0.018698804, 0.080955654, 0.09708576, -0.0583804, 0.062320076, -0.04854976, -0.0039317235, -0.03538411, 0.02991777, -0.00079904497, -0.026181081, 0.03150535, -0.09673652, -0.08595075, 0.052530423, -0.037361234, -0.035823714, 0.05770296, -0.047302082, -0.03511159, 0.0769755, -0.01594969, 0.01854971, 0.05791242, 0.0106317885, -0.0150289135, 0.026095785}, 
{-0.044518474, -0.0006034723, 0.015467405, 0.046417553, -0.084632464, -0.047419753, -0.0614691, 0.1044152, -0.08900684, 0.02893285, -0.064203136, -0.04332322, 0.06113638, -0.056665234, 0.061985686, 0.0018782959, -0.030635087, -0.03285845, -0.0061090705, -0.020804763, 0.0079098195, 0.042574167, -0.0601328, -0.009400032, -0.028016793, 0.06595535, 0.0005426384, 0.03762748, 0.015249792, 0.008302622, 0.028235156, 0.02260214}, 
{0.035298616, -0.06907131, -0.015925348, 0.02379154, -0.047712456, 0.06101592, 0.0048567206, 0.020761177, 0.03241233, 0.03386652, 0.06269738, -0.058925554, -0.06571773, -0.03749075, -0.084311865, 0.0072380975, 0.027659453, -0.036865488, -0.020918287, -0.07715888, -0.067392066, 0.0027956648, -0.041690137, -0.07678571, 0.074163765, 0.07855393, -0.011107704, -0.06297283, -0.00069008756, -0.0049337763, 0.0480242, 0.027157754}, 
{0.054116633, 0.0023407675, -0.04282175, -0.031515688, -0.03238535, -0.03705106, -0.06445911, 0.07242903, -0.04419904, 0.043211833, 0.044292256, 0.012987584, 0.009250499, -0.013934687, -0.046667065, 0.08211176, -0.08685225, 0.042745393, -0.014289282, 0.01957158, 0.003708761, -0.08597712, 0.03691168, 0.023691818, 0.039652865, 0.035835523, 0.10046675, -0.019475505, 0.055571288, -0.0041683144, 0.03403936, 0.023799583}, 
{-0.018070875, -0.0047995835, -0.024402305, 0.04074923, 0.051077485, -0.00038179755, -0.06234388, 0.084826514, 0.018796965, -0.07661221, 0.054307207, 0.0043038204, -0.067921475, -0.029456459, -0.037917353, -0.0009960474, -0.041926686, -0.01278802, -0.03228749, -0.022945844, -0.039077584, 0.06451203, -0.07398659, -0.030225419, -0.008876698, 0.06059321, 0.07719037, 0.0853484, 0.06946738, 0.10137791, 0.024444561, -0.04647785}, 
{-0.0003646203, -0.018210782, -0.03966879, -0.057860978, -0.060979564, 0.06065114, 0.06697424, 0.045628503, -0.058121752, 0.0043051303, -0.05710379, 0.057155892, -0.06893265, -0.07867935, -0.031856645, -0.04166159, 0.01528622, -0.039598327, -0.05322958, 0.012123972, 0.062266026, -0.04038808, -0.0418372, 0.07717785, -0.08459754, 0.06754451, 0.055961564, -0.07460374, 0.049870312, 0.047552396, 0.056128714, 0.056600273}, 
{-0.07634988, -0.046470687, 0.086425915, 0.033150032, 0.06553291, 0.024570316, -0.0129555985, 0.085447885, -0.012284739, -0.03025759, -0.061939247, -0.052588686, 0.042758793, -0.044007935, 0.024930038, -0.010485935, 0.032632995, -0.08880406, -0.025446514, -0.056956224, 0.0084723225, 0.016060222, -0.014295229, 0.017069109, 0.050526597, -0.07623227, 0.09013693, 0.004936315, -0.016533047, 0.07730327, -0.022652868, -0.023756117}, 
{0.07023468, -0.07162695, -0.006437838, 0.07594111, -0.03090188, 0.0559424, 0.034897983, 0.032294247, 0.0077408203, -0.077391, -0.08251331, 0.01096382, 0.011789501, 0.055496648, 0.06330879, 0.009028923, 0.10121992, 0.02303683, -0.01015301, 0.007625714, 0.023100745, 0.06465365, 0.0076145646, 0.031975143, 0.047468204, 0.047163356, -0.045582246, 0.028194599, -0.075994276, -0.04167228, 0.06277809, -0.06405255}, 
{-0.032007497, 0.016724672, 0.021981515, 0.016313883, -0.0844999, -0.07908989, -0.06953189, -0.038135655, -0.0451242, -0.019162238, 0.059785992, -0.046130247, 0.065274835, 0.01609648, 0.015360139, 0.072537445, -0.02366711, -0.07412823, 0.017219028, -0.06606804, 0.062434394, -0.08300102, -0.06348612, -0.077365234, -0.017826699, 0.042818375, -0.064419545, -0.03411263, -0.08106054, 0.06050744, -0.049713884, -0.059519194}, 
{0.07790441, -0.058667723, 0.0009415522, 0.079079784, -0.07477191, -0.031366944, 0.0016169399, -0.00085918466, -0.07152273, -0.008285006, -0.04085706, -0.0063308626, -0.05417866, -0.06622043, 0.05029805, 0.0400412, 0.011431307, 0.07330085, 0.031540416, -0.07885318, 0.010500858, -0.01649372, 0.0010359274, 0.005656421, -0.06320388, -0.07348834, 0.067963816, -0.08442861, 0.039705038, 0.038489874, -0.08250598, -0.0718219}, 
{0.029230993, -0.03782952, 0.024196804, -0.0058146706, 0.08441317, -0.0031369776, -0.033755507, -0.06911736, -0.0014512447, 0.033669952, -0.02488703, -0.06845273, -0.032076214, 0.049641788, 0.025771655, -0.05256192, -0.0078016073, 0.07090371, -0.041515183, 0.04486735, 0.043844942, 0.046003252, -0.038560726, -0.08277025, 0.030412372, 0.00060830417, -0.017567476, 0.0056639165, -0.07070934, 0.043382496, -0.03671993, 0.028376132}, 
{-0.0105013205, -0.04151385, 0.08353393, 0.05077698, 0.052986994, 0.008633256, -0.08064748, 0.040920693, -0.023465417, 0.027151199, -0.057843413, -0.0854804, -0.05470189, 0.04135123, 0.045454368, -0.085985176, 0.13154654, 0.013696897, -0.043803122, 0.020168483, -0.014317336, -0.02819356, 0.081087135, -0.059938777, 0.031050367, 0.023079125, -0.09299708, -0.045623675, -0.010957275, 0.05021418, 0.024415981, -0.020964101}, 
{-0.003790512, 0.004978628, -0.08556442, -0.09393992, 0.00010160357, -0.040746804, -0.044594225, -0.0870239, -0.02328568, -0.08951313, -0.0664023, -0.016204283, 0.066018045, 0.02526486, -0.045539804, 0.07147842, 0.04328472, 0.031041538, 0.048635148, 0.037910707, 0.058151525, 0.047737535, -0.06441049, -0.086101525, -0.03033105, -0.053331546, 0.01843377, 0.00644172, -0.032631733, 0.0069948104, -0.07965551, 0.042487547}, 
{0.06575349, -0.060332492, -0.06589173, -0.09349273, 0.0521563, 0.0032660887, -0.01201231, 0.08191115, 0.061236802, 0.049817245, -0.064393595, -0.0013463721, -0.07500112, 0.06569643, -0.033370554, -0.09058423, 0.012859771, 0.09647794, 0.075938985, -0.0765589, -0.059091978, 0.038896002, -0.06544062, 0.06817944, 0.002646538, 0.07680691, 0.015120794, -0.05387169, -0.0038541988, -0.026535515, -0.06900976, -0.0010129735}, 
{0.059035894, -0.037215214, -0.0389168, 0.003157624, -0.04795583, 0.03393832, 0.025237255, 0.056097288, -0.07477166, -0.055898, -0.065087065, -0.06753007, -0.025895543, -0.08031328, -0.07484077, -0.04801576, -0.013801645, 0.044470202, -0.04979114, 0.073241666, 0.059495497, -0.03428155, 0.039304707, -0.013013244, 0.016773041, -0.07984899, -0.055060204, 0.08009638, -0.0025436312, -0.029008387, 0.035697777, -0.0072116256}, 
{0.04800808, 0.040564205, 0.004710637, 0.0061847665, -0.0063699856, -0.08642175, 0.05333522, 0.09804168, 0.06433867, 0.019675722, -0.049801894, 0.039572358, 0.03971128, -0.035233818, -0.015399575, 0.058274865, 0.10148375, -0.011961354, -0.030652585, 0.08438574, 0.07219729, -0.07945516, -0.06720092, 0.055787668, -0.007225685, -0.06355458, 0.07162167, -0.014712878, -0.012171737, 0.055441603, -0.036385495, -0.067437656}, 
{0.0053654835, -0.057822663, 0.051273942, -0.023562321, -0.040886134, -0.029742636, 0.03526409, 0.028597033, -0.009546166, 0.026156751, 0.008523844, -0.07169419, 0.072356045, 0.0767643, 0.039622128, -0.037386212, -0.03241589, -0.0076274876, -0.06182886, -0.027069923, 0.0500085, -0.037036296, 0.035505794, 0.024418682, 0.006102273, 0.03432607, -0.06944949, -0.0417707, -0.04369751, 0.04536149, 0.038720094, 0.07950148}, 
{0.024238277, 0.052041743, 0.006445229, 0.08732547, 0.0037341714, 0.030266114, -0.023639478, 0.016281148, -0.05763333, 0.03751323, -0.053150717, 0.059270307, 0.06442909, -0.050353434, -0.021586418, -0.08238441, 0.041164726, -0.066113845, 0.033031948, 0.013072319, 0.08753286, 0.013090755, 0.031181132, 0.048896417, 0.018034026, -0.059798624, 0.036061734, -0.037497357, 0.070394985, 0.03960763, 0.08624093, 0.010952257}, 
{-0.058202777, 0.017082421, 0.045734033, 0.07678486, -0.045130588, -0.0060236827, 0.078783914, 0.093351424, -0.058787387, -0.02277271, -0.017518274, 0.04222636, 0.07561132, 0.016680785, -0.025098957, 0.054273784, 0.058198676, 0.053240094, -0.044635188, -0.060373288, -0.02812893, 0.022701269, 0.025609782, 0.026566945, 0.056559354, -0.06582804, -0.011961571, 0.066744596, 0.022883005, 0.06694021, -0.0416854, -0.01420895}, 
{-0.06813847, 0.074698895, 0.063747644, 0.04540443, -0.053029124, -0.056261495, 0.018226758, 0.07464162, -0.056542512, -0.05269275, -0.064449176, -0.030543808, -0.07476325, -0.06226746, -0.070956886, -0.011517194, 0.024671126, -0.020540012, 0.03625977, 0.012859687, 0.0039530564, -0.047800597, 0.011763224, -0.023595043, 0.03197382, -0.036670685, 0.03576725, 0.08612715, -0.047999475, -0.09909904, 0.04992904, 0.034047075}, 
{-0.03609843, -0.0323601, -0.008546971, 0.0426054, 0.01932887, 0.082969114, 0.025981337, -0.0044513405, -0.07652506, 0.04729934, -0.032749493, 0.03429848, 0.078268915, -0.0058322772, -0.0834776, -0.06589594, 0.12552603, 0.0037804325, 0.042139642, 0.06510544, -0.019382311, -0.03054897, -0.067262314, -0.013188727, 0.07579128, -0.005190138, 0.064787954, -0.038105536, 0.04143911, -0.005909056, -0.07072987, -0.0104625}, 
{-0.060730487, 0.035791613, 0.06177412, 0.08963452, -0.047643576, 0.032365076, 0.03363996, -0.05191845, -0.021675155, -0.07845229, 0.06502882, -0.07233829, -0.023469448, -0.022639245, 0.0336029, 0.067073174, 0.095795155, 0.038912427, 0.015968563, 0.03682924, -0.07279078, 0.06427352, -0.034872636, 0.04133877, 0.06889137, 0.07466924, -0.01639698, -0.015081234, 0.030193904, 0.014099998, 0.044581953, 0.004171796}, 
{-0.060818266, -0.08270793, -0.071984306, 0.05632157, 0.032751597, -0.028914891, -0.03296173, -0.0516036, 0.03598824, -0.027270008, 0.032945335, 0.08355348, 0.07749121, 0.0071072504, 0.045121282, -0.021264335, 0.03646308, 0.00854572, 0.05046168, 0.06591754, -0.031201886, 0.07294177, 0.03573876, -0.008195341, -0.013787973, -0.07102434, -0.023026753, -0.040832058, 0.024111725, -0.013175916, 0.0809383, 0.06359291}, 
{0.032306418, -0.08069076, 0.06321356, -0.003478755, -0.012285233, 0.07572028, 0.0625931, 0.10216857, 0.024176974, 0.013480953, 0.0047929436, 0.028954968, 0.034903556, 0.06877123, -0.04117793, 0.076683745, 0.007979315, -0.024189802, -0.071230546, 0.021416448, -0.03246112, 0.010500557, -0.07718515, 0.0108208135, -0.017660497, -0.009017794, -0.04503487, 0.06363182, 0.0047834134, -0.06212059, 0.07759863, 0.021053053}, 
{-0.025320387, -0.028438779, 0.042249143, 0.07537411, 0.034522444, -0.03343303, 0.0024684668, 0.06307132, 0.07707544, -0.03568691, -0.067808814, 0.01911696, 0.08449206, -0.08409641, 0.07855976, -0.07646264, 0.07151566, -0.05818221, -0.08286848, -0.08098631, -0.019400125, -0.028769778, 0.051345486, -0.049829006, 0.07417429, 0.0005671824, -0.015964381, -0.054485153, 0.09283274, 0.04634728, -0.0050291256, -0.022649795}, 
{-0.05332596, -0.023888152, 0.03065683, 0.08217518, -0.019486018, 0.08444215, -0.03998794, 0.07960397, -0.086945556, 0.06354456, 0.07773049, -0.043111477, 0.022406667, -0.061996274, 0.07788822, -0.036901258, 0.018497152, -0.06556836, 0.031759188, 0.061141387, -0.0501656, -0.03259516, -0.0069857207, 0.05684361, 0.07667947, -0.02391589, -0.058337323, 0.008065924, 0.072811775, -0.07700636, 0.08997986, 0.012847751}, 
{0.047758143, 0.012879721, 0.045298353, -0.11285905, -0.047220647, -0.042850118, -0.08348633, -0.023659294, -0.07455598, -0.07180366, 0.023953877, 0.060235128, 0.033585064, 0.045324907, -0.052003678, 0.04580543, 0.016224727, 0.09285776, 0.054754082, -0.03274939, 0.07078057, 0.02596852, 0.054409113, -0.04099949, -0.03832838, -0.02532625, -0.09168213, -0.080730945, -0.10980288, 0.028185062, -0.031745523, 0.08315089}, 
{-0.0032070277, 0.029426204, -0.062910244, -0.062533684, 0.00081888586, 0.07766609, -0.017781489, -0.013655957, 0.04163321, -0.08675556, 0.010359488, -0.03705261, 0.07880388, 0.013366237, -0.002038665, 0.03742366, -0.1037683, -0.07038158, -0.011764309, -0.027212493, -0.06725984, 0.04744017, -0.08583841, 0.042804822, -0.051023558, 0.06752773, 0.0851712, -0.05886349, -0.052878585, -0.014967627, 0.039663777, 0.031257577}, 
{-0.014060632, 0.07900319, 0.013270557, 0.0095761595, 0.07765159, -0.022885017, -0.07748838, -0.06322293, -0.05600434, -0.09007247, -0.028524239, -0.061959833, -0.080599025, 0.051214114, 0.0061062947, 0.050446283, -0.06578728, 0.010522871, 0.025447693, 0.020590708, -0.05502159, -0.02787949, 0.05631189, -0.07401854, -0.02156776, 0.0020871286, 0.096600346, -0.019235827, -0.05745923, -0.010299975, -0.014129684, 0.056491464}, 
{-0.049864292, -0.0030666746, -0.031335663, 0.03449599, -0.080026634, -0.0152501315, -0.06713145, 0.0512634, 0.076712936, 0.06758635, 0.08478649, 0.054629043, 0.021077082, -0.05073521, -0.06416269, -0.033823445, -0.02359301, -0.071275614, -0.013951805, -0.08175129, 0.038856257, -0.028727673, 0.033500597, 0.053806514, -0.07933301, -0.07426339, 0.04612237, -0.017031297, -0.031945862, 0.074534796, 0.042780552, 0.046840057}, 
{-0.07248076, -0.0056239553, 0.07630554, 0.04319626, 0.05020562, -0.01818639, -0.018504962, 0.095127724, -0.039823502, -0.004061406, -0.026742365, 0.017521665, -0.051598735, 0.08379525, -0.045280986, 0.012358865, -0.010120667, -0.09704743, -0.0057863137, -0.03509777, 0.067609176, -0.057277616, 0.034705106, 0.025036767, -0.08984453, -0.08810273, 0.025398945, -0.072378166, 0.009510499, 0.038494036, -0.03838287, -0.0183243}, 
{0.047129415, -0.08163369, -0.064900614, 0.042352337, -0.02862025, 0.07062715, 0.039662242, -0.05357367, 0.035381883, -0.06661479, -0.038473103, 0.07510145, 0.045920014, 0.010163933, 0.06792775, 0.07787306, 0.013894298, 0.029659467, -0.06080094, 0.010697924, -0.028560141, 0.063616745, 0.048015267, 0.0005735308, 0.074916475, 0.07783363, 0.0979329, -0.07322335, -0.048612848, 0.007302647, -0.049771465, 0.0686156}, 
{-0.03664453, 0.03588935, 0.074039906, 0.004351312, 0.044639096, 0.034904674, -0.042887636, 0.08978734, -0.07133583, -0.086726665, -0.048705317, -0.068093695, -0.07243643, -0.06094349, -0.028873555, -0.054083824, 0.033955913, -0.048380964, 0.035625506, -0.06962532, 0.04403243, 0.008555273, 0.025202712, -0.049256075, 0.058487155, -0.084466286, -0.0055420175, 0.08401643, -0.020491077, 0.06646743, 0.07155372, 0.037851445}, 
{-0.08963914, -0.08272684, 0.0539058, -0.056500718, 0.022751652, 0.030150905, -0.08067962, 0.053275246, -0.09054329, 0.055419743, -0.056591563, -0.060212485, 0.023177385, 0.042448267, 0.039772734, -0.08772846, -0.043591127, -0.04925737, -0.0740024, -0.01383213, 0.022725502, -0.0835084, -0.09752473, 0.040071934, -0.028397048, 0.018893892, 0.055264637, 0.07456842, -0.045350663, 0.00096200255, 0.11106262, -0.07500392}, 
{-0.032979507, -0.07417519, 0.08592622, 0.048307497, 0.05444427, 0.049983725, 0.068958044, 0.029805712, 0.032853615, -0.065548025, 0.011859871, -0.002267301, 0.06460227, 0.035017617, -0.018601447, -0.07108885, -0.025539253, 0.05458335, 0.014879633, -0.030375134, -0.01111469, -0.08307733, 0.0013952272, -0.054008666, 0.03614914, -0.087055326, 0.029698709, 0.019445755, 0.021854727, -0.021776771, 0.04214765, -0.0072872415}, 
{0.07026614, -0.042803228, 0.028154291, 0.03792727, 0.012603119, -0.009750605, -0.07167003, 0.094639234, 0.040131148, 0.01570033, 0.07039724, -0.04115736, -0.08330633, -0.07676059, 0.019406088, 0.047884975, -0.04311662, 0.040164817, 0.0055711553, 0.0010589734, 0.03654207, -0.07224587, -0.04328766, 0.020026654, 0.009769914, 0.034746725, 0.016821722, -0.027832396, 0.04959297, -0.0026200714, -0.018314477, -0.056529272}, 
{-0.09109433, 0.0015860226, 0.0031201318, 0.08964493, -0.08274626, -0.013427436, 0.078977734, 0.039207764, 0.023988053, -0.030131891, 0.05137527, 0.00870344, -0.0020941645, 0.018725976, 0.024724081, 0.080280386, 0.007861327, 0.04561497, 0.06558251, -0.065586075, 0.04292512, -0.06855183, 0.0075446456, -0.07847769, -0.07259991, -0.067045696, 0.025864659, -0.0697925, -0.032908816, -0.056883324, -0.050557826, -0.062031996}, 
{0.012264682, 0.0062048915, 0.066735104, 0.12405389, -0.048785843, -0.03936886, -0.03779681, 0.09070886, 0.0025948917, -0.061137386, 0.04086487, 0.06537093, 0.018642, 0.0039160997, -0.019434214, -0.015979845, -0.005348687, -0.10016044, -0.05033524, 0.06930332, -0.0060517923, -0.03570652, 0.017486623, -0.06260051, -0.039233293, -0.010223828, 0.0510945, -0.07515267, 0.059571058, 0.10069072, -0.03787822, 0.08489698}, 
{0.039278176, 0.06129813, -0.015694983, 0.08799601, -0.06454936, -0.06929374, 0.046957493, 0.014420743, -0.034565024, 0.014894459, 0.0721425, -0.08258578, 0.05568303, -0.054483876, 0.012686662, -0.058333594, -0.0057142563, -0.06376727, -0.086048655, -0.071890235, 0.06486844, 0.04501937, 0.03784939, -0.06667326, 0.018449867, 0.014235659, 0.02375299, -0.06483665, -0.039187085, 0.04011979, 0.058043215, -0.017825864}, 
{-0.0009227405, -0.07036461, 0.060625866, -0.03249782, -0.03868431, -0.01001025, -0.03032874, -0.06929436, -0.03315264, 0.03633865, 0.043561623, -0.009152256, -0.029342566, 0.01820489, 0.035706997, 0.062448025, -0.002384801, 0.043160815, -0.06432701, 0.014662892, 0.08964231, -0.027081957, 0.08019239, 0.0019343346, -0.06673731, 0.015672239, -0.073056646, -0.06632679, 0.04750338, 0.019069344, 0.023352666, 0.010495633}, 
{-0.033038538, 0.005301928, 0.0073793903, 0.009534068, -0.074174345, 0.008262508, -0.08078147, -0.0060412176, 0.021060295, -0.011463117, -0.058628477, 0.00028341264, -0.019157909, -0.010332145, 0.007468693, 0.0023899986, 0.1473936, 0.083397664, 0.06321781, 0.03396436, 0.021792961, 0.0006895396, 0.07157926, 0.03431952, 0.00072265434, -0.048592158, 0.023772227, 0.02706629, -0.06255093, -0.010470752, 0.010248232, -0.051803745}, 
{0.062701344, 0.010927987, -0.03195216, 0.023507519, -0.011007309, 0.084988, -0.086259745, -0.018936869, -0.0017188835, -0.027899234, 0.011092745, -0.05257025, -0.04996889, 0.05363439, -0.056579962, -0.019228633, 0.036480263, 0.10755741, 0.032153632, -0.05024334, 0.11046285, -0.016899658, -0.05087183, 0.078912154, 0.008000693, -0.0546605, -0.07674232, 0.02831667, -0.08092686, -0.014796662, 0.0046417587, 0.07012202}, 
{-0.037043557, -0.034821533, -0.07688305, -0.115538046, 0.060073256, 0.07446091, -0.024859343, -0.0020898564, 0.02538592, 0.0580366, 0.02870635, 0.07156056, -0.022720635, -0.038966067, -0.016824558, -0.08964233, 0.0049766367, 0.031902846, 0.00250219, -0.025478482, -0.015211196, 0.043389376, 0.110771045, -0.0792554, -0.010917353, -0.059480686, 0.016905673, -0.036356412, 0.025985183, -0.09664591, -0.03811063, -0.0036066696}, 
{-0.026986292, 0.055743996, 0.031014845, -0.0069004423, -0.05131254, -0.07410288, 0.021350563, -0.10541776, 0.028773721, -0.023501713, 0.044466898, 0.06352799, 0.043044418, 0.012704067, 0.079983726, 0.06312983, 0.11087999, 0.0071807625, -0.022593742, -0.07949923, 0.077588335, -0.04791706, 0.055576995, -0.008153118, 0.04391991, -0.023874514, 0.052432694, -0.0024509355, -0.007628991, 0.008962578, 0.03628353, -0.060025085}, 
{-0.08640597, 0.031232271, 0.04784091, 0.03241288, 0.067937404, 0.047177345, -0.066586286, -0.07874946, -0.036406808, -0.07038246, 0.0782288, -0.005454965, 0.061933637, 0.02939301, 0.0111122355, 0.06492725, 0.07678771, 0.081128545, -0.018056534, -0.043192208, 0.08352781, 0.0769951, 0.02104966, 0.053012148, 0.08268312, -0.037570998, -0.0960903, -0.022740066, 0.008660684, -0.030090481, -0.09566696, 0.043957785}, 
{0.06800757, -0.0246598, -0.007647127, 0.028275583, 0.036155425, -0.009959936, 0.08218491, -0.0110606775, -0.054314747, -0.04637155, 0.07231827, -0.06209848, 0.064357564, 0.055889547, 0.0005085692, 0.048082937, 0.094818994, -0.0018156569, 0.06298256, -0.08566254, 0.06963858, -0.0017661549, 0.105908886, -0.080567226, 0.0027433059, 0.01745919, 0.0033275036, -0.052624512, -0.019280378, 0.038376994, -0.015256153, -0.03796408}, 
{-0.056382854, -0.025207454, 0.014395706, 0.014475736, -0.022710599, -0.041340135, -0.04933691, 0.0051719546, -0.08967192, -0.0002448928, -0.0799879, -0.0062064603, 0.04289621, -0.0532912, 0.08471049, -0.072121024, 0.028163005, 0.0485368, -0.03849851, 0.03256298, 0.05829148, 0.062450632, 0.014782188, 0.0058159456, -0.01433519, 0.0660608, 0.015511199, -0.023755893, 0.07999012, 0.020557517, 0.067218654, 0.00016991049}, 
{0.007083576, -0.019607393, -0.05228872, 0.027198343, 0.01683335, 0.08243254, -0.051726524, 0.10106784, -0.04538162, -0.026398532, -0.014743395, 0.023836516, 0.032780506, 0.06568961, 0.026854545, -0.06658842, 0.10366002, 0.048627976, -0.06492897, 0.07588424, 0.09178923, -0.03183202, 0.025440857, 0.074083045, -0.02776574, 0.073274046, 0.008592491, 0.050386682, 0.069573395, -0.091867305, 0.0021833077, 0.070915386}, 
{0.023942798, 0.018924138, -0.060353443, 0.08993735, -0.019286543, 0.010470219, 0.045307577, 0.013894881, -0.060206562, -0.0062409076, 0.053252876, 0.06695208, 0.0668374, -0.0017021522, 0.027179107, -0.063162684, 0.109534256, 0.00021448315, -0.08620032, -0.05202354, -0.065567896, 0.07284574, -0.005037164, 0.03181585, -0.005673786, -0.09027341, 0.015013543, -0.07419497, 0.003889189, -0.07290761, -0.0077746627, 0.055287853}, 
{0.011377829, -0.046682213, 0.031266227, 0.03249348, 0.08376382, 0.052589044, 0.06473337, 0.061739527, -0.065626085, 0.072720096, 0.022722766, -0.03482202, 0.04639305, -0.042291414, 0.051119357, -0.020590892, -0.03375222, 0.07623661, -0.0708548, 0.060808867, 0.049612228, -0.016341472, -0.05185258, -0.05454468, -0.084021464, 0.026285011, 0.064996295, 0.044749558, 0.05104036, 0.025690284, 0.010742283, 0.028950281}, 
{-0.05312572, 0.052945487, 0.032421894, 0.06670854, 0.059776485, -0.014234491, -0.08355063, 0.07500553, -0.065085605, 0.048652336, -0.013224743, 0.0745628, 0.06560536, -0.064711004, -0.051919475, 0.0719788, 0.104927614, 0.029457016, -0.09337856, -0.05763638, 0.09106217, 0.055685326, -0.05232643, 0.016021013, -0.033200983, 0.0073482078, -0.007144965, 0.0094154775, -0.0023840347, -0.007355105, -0.07036592, -0.06227246}, 
{-0.014681376, -0.039923698, -0.012412854, 0.084460646, -0.02409038, -0.049531266, -0.04218219, 0.07207452, 0.01679607, 0.04513468, -0.017564483, 0.06430511, -0.008288734, 0.007116005, -0.059961718, -0.05874952, 0.0073970985, 0.050928764, -0.058146194, -0.06552969, -0.025912702, 0.071091704, 0.062362466, -0.017778993, 0.06219235, 0.0026539955, 0.0044204793, -0.013839729, -0.055166714, -0.08787271, 0.062430147, -0.08650103}, 
{0.0028460906, 0.055844616, -0.046862744, 0.015323857, 0.016570136, -0.061549008, 0.056933656, 0.033055462, 0.021625517, 0.06512319, -0.01944431, -0.038970154, 0.0048065856, -0.043888573, -0.03435138, -0.021143986, 0.005402344, -0.08228938, 0.037838604, 0.0049769133, 0.039685767, 0.05977193, -0.07202963, 0.01733286, 0.07959477, -0.07332016, -0.027705394, 0.083666295, -0.005162061, 0.045879662, 0.061866548, -0.07682777}, 
{0.053613823, -0.027829148, 0.024677187, 0.09017243, -0.013586096, 0.0720388, -0.04185649, -0.012037874, 0.030803315, -0.015668768, 0.008226663, -0.048637677, -0.02655185, -0.07269324, -0.08041369, 0.066019446, 0.09990687, -0.00925928, 0.028247213, 0.052055195, 0.0025960275, -0.0010938834, -0.04784357, 0.017210461, 0.05471447, -0.06389263, 0.024135776, -0.0075573325, -0.043084342, -0.0078970995, -0.06383462, -0.044176318}, 
{-0.066443875, -0.054817755, -0.05626195, -0.0063499473, 0.061736405, 0.019292325, 0.07357967, 0.020608468, -0.08998902, -0.08101721, -0.021254055, 0.046425402, 0.07391429, -0.02775567, -0.03577425, -0.011693422, 0.12202116, -0.06759982, 0.072838545, -0.05763962, 0.05330203, 0.048994485, 0.061461646, -0.061180424, 0.033642743, 0.071888335, 0.02888181, 0.028785124, 0.016867166, -0.076020904, -0.04141567, 0.0751853}, 
{0.06931094, -0.036069557, -0.078968376, 0.013994978, 0.017615631, -0.04145006, 0.06151077, -0.058012553, 0.07145517, -0.07462981, -0.07190205, -0.028072033, -0.05168756, -0.0065947995, 0.03344263, 0.046256904, -0.013334546, 0.012316116, 0.032399137, -0.021835968, 0.02846448, 0.054321617, -0.03313059, 0.08090599, 0.058036067, -0.06294522, 0.018450908, 0.048669368, 0.03987839, -0.0009234128, 0.04944628, -0.066712014}, 
{-0.053905208, -0.078683905, -0.081205904, -0.039261058, 0.05103144, 0.060622856, -0.038857006, -0.05848851, 0.0038810298, 0.017905694, 0.07211776, -0.04798519, -0.047527265, -0.029183581, 0.032558918, 0.009334273, 0.12140062, 0.04624347, 0.025702585, -0.008239284, -0.019938303, -0.03103222, 0.068474755, -0.021927811, 0.040713325, 0.014808986, 0.059961207, -0.037056923, -0.020511864, -0.008738709, 0.07738243, 0.016884372}, 
{-0.0752923, -0.059355944, 0.00045331568, 0.093000405, -0.05313106, -0.07487719, 0.047614694, 0.086105734, 0.037724245, 0.016922656, -0.025216918, -0.05936634, 0.049842775, -0.04259743, 0.07173303, -0.046232544, 0.056430828, 0.004861962, 0.075821616, -0.08648569, -0.07543593, 0.073630534, 0.0785427, -0.038335156, 0.063344985, -0.0484001, -0.009977037, 0.0003922209, -0.017100688, -0.0505941, 0.08452741, 0.060666606}, 
{0.007517874, 0.064849846, -0.07946047, -0.061595064, -0.07160284, 0.046651304, 0.013469413, -0.12473939, 0.075245224, -0.07785028, 0.070041806, -0.0627106, -0.020530127, -0.0068724453, 0.05901286, -0.03775199, -0.08482889, 0.09371654, -0.0060455306, 0.02631405, -0.010325804, -0.0033460162, 0.028295178, -0.07967426, 0.028705075, -0.077974826, -0.05422297, 0.08178222, 0.024933767, -0.008280527, -0.08084056, 0.08634971}, 
{-0.070980065, 0.05917787, -0.08341911, 0.07665637, 0.06855874, 0.06717685, 0.030211955, 0.014282103, 0.002737375, 0.07977904, -0.03870574, 0.002221793, -0.037872568, -0.010392316, 0.073227406, 0.017379783, 0.05659608, 0.034404386, -0.031157574, 0.085091025, -0.023280269, -0.049986113, -0.0035253253, 0.0054301247, 0.075619824, 0.007999491, -0.035852592, -0.034176968, -0.07670228, 0.12949945, 0.029208697, -0.038680013}, 
{0.039697323, -0.03463015, 0.04484132, 0.010296543, -0.013243675, -0.06759076, -0.0027587935, 0.029367369, -0.0673459, -0.0011347131, -0.035340007, -0.053121068, -0.07726451, -0.07787748, -0.0678306, -0.078392304, 0.0545565, -0.011563149, 0.019939413, 0.07474783, -0.101393454, 0.06412365, 0.01604825, 0.015940756, 0.030377517, 0.040334553, -0.017383108, -0.032241024, 0.073977046, -0.013113032, -0.026175061, 0.03569162}, 
{-0.076340884, -0.04045327, -0.026052032, -0.03933209, -0.077109225, 0.0035336614, 0.017480366, 0.05748358, -0.033194914, 0.0061201397, 0.045762405, 0.05580148, -0.03378336, -0.07918043, 0.06315118, 0.06005726, 0.04103203, -0.095040105, 0.0020877006, 0.08277334, 0.01159956, 0.029844167, -0.04553917, 0.06747791, 0.079943135, -0.05365666, -0.024897939, -0.020622797, 0.06928929, -0.021452969, 0.03121604, -0.026718251}, 
{-0.05416254, 0.0666427, 0.031735964, 0.06864898, -0.008925281, 0.071581274, -0.06823709, -0.036349397, 0.041709915, -0.028895173, 0.022660136, -0.042452175, 0.026848473, -0.0026282594, -0.05502639, -0.0074278857, -0.012743167, 0.036202446, 0.01599886, -0.002016969, -0.041776102, -0.020638939, -0.06780782, -0.037746783, 0.07407812, -0.062318243, -0.034971755, 0.00840126, 0.0029770038, -0.044484362, -0.040713415, -0.039399337}, 
{-0.030941118, 0.07168829, 0.017259374, 0.102256514, 0.011712693, -0.08378628, -0.014842071, 0.041810617, 0.030370457, -0.08177971, 0.048444554, -0.041640412, -0.049471408, -0.044605583, 0.027395062, 0.07485144, -0.06288195, -0.04258679, -0.03410827, 0.022854328, -0.034155972, 0.039904326, 0.024942104, 0.08441967, 0.03677761, 0.055859536, -0.032637764, -0.030675929, -0.032233667, 0.040017087, 0.03195526, 0.036956184}, 
{-0.0044914912, -0.02287284, 0.085475326, 0.10051007, 0.076610625, 0.00612583, 0.038978785, 0.10020639, 0.033987954, 0.005484992, 0.03682705, -0.010054357, 0.016352035, -0.0045511574, 0.045574725, -0.04694509, 0.023446914, -0.039850935, -0.053916804, 0.03974484, -0.05616822, 0.046973947, 0.053227652, -0.022522092, -0.026336199, -0.08019009, 0.028302092, -0.02219852, -0.06418338, 0.008823965, -0.032371104, -0.03038932}, 
{-0.039920866, 0.07953133, -0.0576166, 0.013632189, 0.013962112, -0.035722423, 0.016175516, 0.09191996, -0.054632727, 0.058406115, -0.027607627, 0.064823434, 0.008413196, -0.040388506, 0.03966315, 0.040303472, -0.007240066, -0.046127953, -0.06604425, -0.080479376, 0.011253601, -0.07301502, -0.061850935, -0.074015684, -0.034590647, -0.043203533, 0.08518724, -0.046675425, -0.005557379, -0.04136391, 0.0020370397, -0.07554087}, 
{0.03790342, -0.01727695, 0.0013787076, -0.028760599, -0.03955244, 0.05764854, -0.005009696, 0.077061735, -0.017869009, 0.06283721, -0.07670942, -0.0016386807, 0.004217446, 0.07655017, -0.010299213, 0.067145586, 0.045456063, -0.03224159, 0.07302041, -0.041719988, 0.054447815, 0.03948538, -0.029447988, -0.05720827, 0.007689637, -0.07157742, -0.060744997, -0.08044281, 0.05496012, -0.031926233, -0.02618867, 0.055013925}, 
{-0.0071084006, -0.04779256, -0.064125255, 0.04420363, 0.030026086, 0.049252942, 0.0033848286, 0.05757858, -0.059781693, 0.02031822, 0.0069543794, -0.057551436, 0.059461936, -0.040864475, 0.017357595, 0.0039223945, 0.055370353, -0.035682343, -0.02735076, 0.011152066, -0.03915009, -0.06873141, -0.09508334, 0.0589467, -0.06991147, -0.056792587, 0.07626544, -0.07606584, 0.02909954, 0.05346608, 0.02582222, 0.00082555413}, 
{-0.0039864443, 0.07275501, 0.08045623, 0.094809234, -0.05436325, -0.07875899, 0.035632916, -0.005913995, 0.055948503, -0.05440356, -0.059705973, -0.051292345, 0.014274694, -0.048414, -0.044125192, 0.03768298, 0.06428093, -0.0845705, -0.05110225, 0.050274193, -0.0069193826, 0.012387592, -0.024656089, 0.04653479, -0.053983808, -0.057428256, -0.025703426, 0.021476947, 0.106769264, 0.020626063, 0.088629834, -0.076121315}, 
{0.028646518, -0.08542343, 0.008275598, 0.13314165, 0.0017919093, -0.08155074, -0.011088759, 0.13276765, -0.047283303, 0.012470659, -0.0036055967, -0.044326343, -0.0018630177, 0.011351377, 0.04944223, -0.0015559455, 0.032532882, -0.09604047, -0.022017276, 0.00074569136, -0.045633145, 0.03482468, -0.067965716, -0.02208919, -0.07816948, 0.05610774, -0.038929842, -0.015843667, -0.025469648, -0.0042566336, 0.09976419, 0.07511926}, 
{-0.083077565, -0.051941432, 0.055981174, -0.046322577, 0.020467877, 0.007974349, 0.068215966, 0.081012495, -0.013440399, -0.08650362, 0.082629666, -0.0067072436, 0.05851482, -0.033018406, 0.080762416, -0.0036483016, 0.019964587, 0.039263234, -0.034179755, -0.03446523, -0.0060141785, 0.045315284, -0.054734867, -0.00955084, 0.03767477, 0.023742259, -0.0003373959, 0.019347884, -0.017208781, 0.0024009943, 0.04175553, 0.029948287}, 
{-0.042136136, 0.07205141, 0.054105505, -0.086826034, -0.04779133, 0.053364694, 0.08311665, -0.010977704, 0.010581518, -0.07935635, -0.056879044, -0.025671806, -0.0111253485, -0.054991435, 0.02051989, 0.041579433, 0.10106609, 0.05803143, -0.07703196, 0.037950866, 0.12450899, -0.07836146, 0.12199695, 0.044909075, 0.0535246, -0.042929385, 0.008889986, -0.039628156, 0.041583594, -0.073465005, -0.10331867, -0.055945374}, 
{-0.075099275, 0.0448564, 0.009134464, -0.13264844, -0.037559528, 0.048346773, 0.036134385, -0.09543259, -0.020578928, 0.042013146, 0.06401004, 0.011831909, -0.044195354, 0.05269727, 0.033052497, -0.07434492, 0.11816604, 0.08620874, -0.08836211, -0.026783124, 0.122326545, 0.010256724, 0.043697026, -0.05425039, 0.04216866, -0.070470944, -0.024659447, -0.0011556894, 0.042208888, -0.042435374, 0.016955988, -0.042521533}, 
{0.037280854, 0.04218923, 0.07286194, -0.08031113, 0.0017523691, 0.01949624, -0.054521948, -0.0031824638, 0.077658676, 0.051910102, -0.024873424, 0.07667042, 0.017679699, -0.032899868, -0.058111873, -0.031978752, 0.027393915, 0.11207943, -0.040466476, 0.07330531, 0.08402135, -0.0020490317, 0.046663847, 0.07852124, 0.06064997, 0.0004647672, -0.13476153, -0.04819745, -0.1211271, -0.0402599, -0.04314496, -0.029003594}, 
{0.07943817, 0.064242855, 0.012466639, -0.1092436, -0.048573814, -0.0649825, -0.04735079, -0.12450956, 0.019407578, 0.0020899074, -0.03881402, -0.004943788, 0.03928487, 0.015535936, 0.036075644, 0.068883374, 0.14796525, 0.06447942, 0.031874023, 0.0793152, 0.056005824, -0.0041109454, 0.00070769864, -0.07207516, -0.049642894, 0.026972068, -0.035130423, -0.06453276, 0.029428886, -0.041819774, 0.010204332, -0.039013125}, 
{-0.039769877, -0.03878074, 0.0020832866, 0.036388498, 0.045811027, -0.03954255, 0.07628019, 0.030267013, -0.024159685, -0.02362279, -0.045460496, 0.07546398, 0.064462125, 0.042489737, 0.08450693, -0.041637108, 0.17715937, 0.1198352, 0.022487048, 0.06920475, -0.0047527305, 0.0069656465, 0.10100313, 0.08191684, 0.075403, 0.062225793, -0.0991718, 0.040132493, 0.053015023, 0.005548938, -0.115309924, -0.057776205}, 
{-0.018393004, -0.010631524, 0.07094666, -0.020980747, 0.011198379, -0.003641732, -0.041301627, -0.0839542, -0.071466744, -0.06960843, -0.052675594, -0.068335846, -0.054679096, 0.07753444, 0.0037623346, -0.06353638, 0.047282178, -0.020881489, -0.043518297, -0.04612122, 0.06019461, -0.06442409, -0.014559101, -0.014008962, 0.010295939, 0.041322988, -0.13950823, 0.001948148, -0.019153425, -0.13073094, -0.11011274, 0.001835227}, 
{0.053959798, -0.022196587, -0.07395162, -0.096561134, -0.03416776, -0.049596533, -0.044003766, -0.015390854, -0.03982619, -0.07971844, 0.070166886, -0.07640836, 0.08235748, 0.07673092, 0.043387562, 0.06781657, 0.16880043, 0.013965961, 0.022663422, 0.008383937, 0.055674896, -0.05143519, 0.030292703, 0.07239248, -0.008912647, -0.043687705, -0.011268671, 0.018695518, -0.07419623, -0.0214829, -0.07582388, -0.013107382}, 
{-0.054208443, -0.06535822, -0.00061546266, -0.122051485, 0.040148973, -0.06309145, -0.06814726, 0.045375016, 0.033987388, -0.004093216, 0.016580872, -0.02851567, -0.041560095, -0.05824602, -0.011189029, -0.063549325, 0.14198835, 0.04402631, 0.0044821855, 0.027333014, 0.05643909, -0.03627888, 0.011601451, 0.045712113, -0.03137013, 0.011396245, -0.108038284, -0.007713467, 0.03903146, -0.008851238, -0.10159221, -0.052533373}, 
{0.06663764, 0.060875636, 0.020244159, -0.014255835, -0.0855028, 0.022442572, -0.03274592, -0.049749486, 0.01177727, -0.0042745853, -0.047548346, -0.027694017, -0.0043762103, -0.08453005, 0.002317123, 0.039276257, 0.08113289, 0.0065723015, -0.01042952, -0.08484864, 0.034533743, -0.052459538, -0.079849966, -0.0620443, 0.0014854482, 0.03426015, 0.0069381692, -0.038075946, 0.0499639, -0.07365126, 0.09347067, -0.059911355}, 
{0.041147083, -0.060096543, 0.069997475, -0.026581645, 0.061887115, -0.079222344, -0.013045274, 0.058204018, -0.05126757, 0.010933925, -0.057559587, 0.08173087, -0.06977146, 0.008651845, -0.017527647, -0.082635745, 0.051035978, -0.057812877, -0.0737343, -0.05625034, -0.046937276, -0.014748223, -0.014699537, -0.08005015, -0.06386455, -0.08326939, -0.031798974, -0.084182926, -0.057921275, -0.013472943, 0.06494351, -0.023914874}, 
{-0.010326677, 0.012840976, -0.016693301, -0.056534953, -0.063968584, 0.03232725, -0.053833637, 0.039447524, -0.051688537, -0.0506012, -0.06081589, -0.016540073, 0.030579485, -0.06528506, 0.06981696, 0.044209294, 0.039785698, 0.05319783, -0.024715694, -0.06873691, -0.039365437, 0.076804146, -0.09040016, 0.011543006, 0.07540781, 0.013042256, 0.08194199, 0.029290408, 0.04494445, 0.03723747, -0.055347696, -0.01105424}, 
{0.05238233, 0.019703574, 0.013176322, 0.040180378, -0.0043353066, -0.072158016, 0.07415722, 0.07533685, -0.0070750434, 0.06778646, -0.03198972, -0.013734803, -0.0019249842, 0.07540345, -0.012216367, 0.0753057, 0.02549654, 0.0014128207, -0.068933435, 0.08078647, 0.037930787, -0.04498363, -0.07245575, 0.023705162, -0.05015179, 0.056908336, 0.039187677, 0.08563499, -0.025806827, -0.01746702, 0.036171325, -0.08004749}, 
{-0.050804157, -0.016542466, 0.058687657, 0.09018316, 0.06574911, -0.06660124, 0.06594421, -0.0117452815, -0.05641133, -0.023555826, -0.08655635, 0.062446952, 0.004195951, 0.05774556, 0.053597063, 0.08018781, 0.11771657, -0.059444856, -0.057511155, -0.009356193, -0.039586846, -0.031583373, 0.02769788, 0.038384072, 0.030030102, 0.024966707, 0.02575287, -0.018531494, 0.07251535, -0.09302591, -0.015856178, -0.021306626}, 
{0.013188484, 0.07522967, -0.07529041, -0.04769982, -0.0025891513, -0.052542828, -0.058279738, -0.021651084, -0.002516611, -0.0058612805, -0.08300392, 0.016345449, -0.05379641, 0.0039405823, -0.06865072, -0.077522315, 0.016077215, -0.053360745, -0.06757241, -0.07542805, 0.06562154, 0.0628044, 0.06296932, 0.060318753, 0.0625736, 0.06379102, -0.03594554, 0.052459955, 0.061509088, 0.04194332, -0.07456913, 0.08221902}, 
{0.02180244, -0.070335306, -0.018590197, 0.047813598, -0.07313372, -0.06487355, 0.064233094, -0.027009614, 0.04452996, 0.034260195, 0.04277189, 0.039625242, 0.047452226, 0.0046228617, -0.002036661, 0.04032913, 0.1228834, -0.032563824, 0.00068123825, -0.012742579, 0.08377862, 0.026586803, 0.07955121, -0.0038571283, -0.05211893, -0.08656115, 0.0313319, -0.012137413, 0.009710256, 0.014597069, -0.075373285, 0.027202457}, 
{0.013013784, -0.02775438, -0.082530595, 0.08022588, -0.014664188, 0.032453135, 0.08621733, -0.042441264, 0.020158218, 0.0497341, -0.02073846, 0.01937361, -0.030248668, -0.06681955, 0.019615933, -0.056507103, -0.020076016, -0.03636229, -0.039344784, -0.03627066, 0.06410437, -0.07793637, -0.033606373, -0.012997344, 0.021372156, -0.062029023, 0.05736119, 0.065270245, 0.05362535, -0.037540156, 0.08887759, -0.0699857}, 
{-0.055953592, -0.02963623, 0.0018983856, 0.03442272, 0.083968535, 0.08214417, 0.0022051707, -0.040540203, -0.07440136, -0.09049786, 0.07129468, 0.060168356, -0.05031982, 0.011717133, 0.021792792, 0.07573932, -0.029962009, -0.07059465, 0.0009782702, 0.07926153, -0.013601987, -0.019293338, 0.030210052, -0.048329532, -0.022952288, -0.05096686, 0.050677486, 0.00563097, 0.10095118, 0.02818182, -0.062240124, 0.020060621}, 
{0.08058672, 0.07097457, 0.06274244, -0.025946783, 0.06285481, 0.026211888, 0.009770989, -0.016683247, 0.05913001, -0.0025969418, -0.024110306, -0.05305425, 0.06557581, 0.027131557, -0.01842665, 0.0005760582, 0.028124403, -0.05632835, 0.0728037, -0.029531948, 0.020497214, 0.040337075, -0.043334067, 0.029714845, 0.074347556, -0.09339834, -0.029744565, 0.0556605, -0.014163921, 0.052698884, 0.017452998, 0.079194054}, 
{0.06975939, -0.04786275, -0.032051127, -0.057045605, -0.055965573, 0.056611136, -0.048864182, 0.029267987, -0.06913999, -0.071477756, -0.065241426, 0.01676637, -0.047276232, -0.06827551, 0.0743247, -0.047683805, -0.022795567, 0.060201768, 0.073621795, 0.048123494, -0.035307176, 0.021528747, 0.030471751, -0.04412794, 0.07663564, -0.03448085, -0.01188453, 0.05938238, 0.05978262, 0.03127905, -0.043545354, 0.01980073}, 
{0.04462775, -0.08787333, -0.046783082, -0.10895022, -0.0283782, -0.03908696, -0.049293548, -0.09328838, -0.07540054, -0.006024948, -0.017049447, -0.06345707, 0.059881404, -0.008370101, 0.006644167, 0.026230905, -0.091309406, -0.0067249592, -0.07266162, 0.016721874, 0.028080381, 0.060395572, -0.016277624, -0.028373614, -0.01723053, 0.07138024, -0.023360323, -0.08110405, -0.06333249, 0.035863962, 0.019721542, -0.021045908}, 
{0.029105444, -0.028555522, 0.041814923, 0.07919717, -0.006474629, 0.06410085, -0.051004518, 0.03966605, 0.0021961597, -0.0846579, -0.018505752, 0.0063775033, -0.061861362, -0.02076266, -0.02682089, 0.028883608, -0.07749863, -0.06450069, -0.034623384, 0.07764755, -0.10319575, 0.010400181, 0.051523127, 0.049276248, -0.009327229, -0.046806026, 0.096513145, -0.051509436, -0.06998965, 0.08447264, -0.044088226, 0.009473637}, 
{-0.02503614, -0.033983223, -0.006037727, -0.029937582, 0.06420751, 0.07624313, -0.06312663, 0.0737068, 0.032009944, 0.070325054, 0.059581324, -0.036219846, -0.052181184, 0.08185731, 0.07114631, 0.06566176, -0.049419936, -0.071060784, 0.032941896, -0.0036484823, -0.0134819, -0.02510117, -0.09383528, -0.006729543, -0.050233897, -0.06786342, 0.056649078, -0.0668909, -0.062444594, 0.005254035, 0.022644838, 0.013012007}, 
{0.040834177, 0.063356094, 0.012809746, -0.058366966, 0.0031920895, 0.06422193, 0.010979764, 0.08416505, 0.010562161, -0.0740396, -0.066378534, 0.0054780915, 0.028820038, -0.0012391061, 0.019648701, -0.008135952, 0.0642643, -0.11210409, -0.08015524, -0.08323193, -0.059285123, 0.057701178, -0.049693886, -0.07218837, -0.036957685, -0.06488877, -0.018658962, 0.028599933, 0.055799138, -0.013731216, 0.058867875, -0.02050861}, 
{0.032755192, -0.048409592, -0.06440984, -0.0063003716, -0.0012386516, -0.07666945, 0.02089101, 0.081615426, -0.091680236, 0.029068766, -0.028571501, 0.015630707, -0.060713436, -0.036221415, 0.03166557, -0.08350693, -0.037478745, -0.069271445, 0.004691262, -0.07019643, 0.004446187, 0.069454335, -0.10440098, -0.072839595, -0.07056729, 0.023382736, 0.043520886, -0.013791561, -0.031169422, 0.11218101, 0.012505879, -0.013575256}, 
{-0.014111493, 0.07437776, 0.07755157, 0.09387356, -0.01176656, 0.0029395893, 0.037286587, 0.01604845, -0.07726191, 0.0032178655, 0.04160799, -0.07775089, 0.08427805, -0.04492025, -0.02842604, -0.01889938, -0.03423363, 0.054377012, 0.014994271, 0.04436107, -0.0058854367, 0.024724543, -0.10117075, 0.08229402, -0.016329808, 0.007352067, -0.06561592, -0.03599369, 0.08100612, -0.024829373, -0.044074547, 0.07430251}, 
{0.05922953, 0.042161316, -0.042732943, 0.042096853, -0.0030981824, -0.02257026, -0.079851374, 0.0004558267, -0.058770925, 0.036000907, 0.068605796, 0.082096994, 0.011918835, -0.05201369, -0.042538896, -0.057042565, 0.06393324, -0.08103394, 0.007935744, 0.019211031, -0.05155963, -0.028219648, -0.036191635, -0.060666133, 0.07885129, -0.026643796, 0.07688106, 0.014338292, -0.015703987, 0.044146344, 0.111904204, 0.033082582}, 
{0.02446865, -0.011485154, 0.017703481, 0.08818642, -0.049557365, 0.042695448, 0.031438366, -0.03895918, 0.0027074518, -0.038604245, 0.039623484, 0.015640967, -0.024789099, 0.031671047, -0.008040234, -0.04904447, 0.07927194, -0.10596438, 0.00065678346, 0.013704672, 0.006595358, 0.0122379465, -0.022537343, 0.06608404, -0.036980577, -0.07710098, 0.0773592, 0.049873307, 0.08426477, -0.04988311, -0.025426464, 0.046109945}, 
{-0.029570276, 0.04018865, -0.0128500685, -0.018590968, -0.05351715, -0.074082315, -0.058230598, 0.047668353, -0.05747037, 0.012529999, -0.029841289, -0.0089266, 0.063776076, 0.026351035, -0.04255504, 0.018031199, -0.03377216, -0.054901842, -0.01282433, -0.029695146, -0.026120173, -0.0742465, 0.034499668, -0.08385289, 0.048753813, 0.031977806, -0.045706257, -0.07671718, 0.042447895, 0.07312696, 0.017855898, -0.00935898}, 
{-0.07503487, 0.027118541, 0.038211666, -0.041194916, 0.016569264, 0.043234766, 0.059200212, -0.02466713, -0.00892891, -0.016964443, -0.059629783, 0.08251482, 0.022715598, 0.054967716, -0.07033372, -0.03516001, 0.06269478, -0.07299062, -0.004086613, -0.06781986, 0.006990014, 0.052990586, 0.0033687735, -0.08215888, -0.011056522, 0.020043619, 0.028454931, 0.05230005, -0.058857147, -0.030863773, -0.042292383, -0.010630138}, 
{-0.083779074, -0.08816441, -0.041956592, 0.10565944, -0.008178249, 0.017957121, -0.08341491, 0.112236425, -0.087387525, -0.06557853, 0.077454224, -0.08456342, -0.025662124, -0.0065857545, -0.0056694746, 0.06809847, 0.008966027, -0.0026719472, -0.04174944, -0.026050217, 0.018675731, -0.08615132, 0.056738295, 0.027338833, 0.057930574, -0.026559828, 0.075709686, -0.0488317, -0.050957803, 0.05318975, -0.036410186, 0.042139113}, 
{-0.024365278, -0.044564888, 0.041757345, 0.0038861926, -0.0283451, -0.021829136, -0.022202529, 0.065621234, 0.05192433, -0.02099508, -0.07995992, 0.004064262, 0.016671784, -0.03321906, 0.056505755, 0.027354239, -0.04964963, 0.03850064, -0.066773966, -0.072641976, 0.026875876, 0.02874541, 0.0034075617, 0.023147963, -0.09153754, -0.012814213, -0.036436137, -0.042258583, -0.023694843, 0.11294909, 0.062100813, -0.08019846}, 
{0.077290066, 0.059377775, 0.02316539, 0.013371217, -0.0012039021, -0.04557567, -0.03968721, -0.018591687, -0.05512888, 0.03362703, -0.041575145, -0.042172853, -0.05906627, 0.0051729158, 0.0073942766, -0.045093298, 0.009422933, -0.024953248, 0.061389305, -0.076037586, -0.077983424, -0.066276655, 0.0154499225, -0.070174046, 0.04173137, -0.0882198, -0.026193455, 0.031377725, -0.05668521, -0.09647415, 0.089286536, -0.018372864}, 
{-0.03452071, 0.00043696, 0.037217848, -0.08732104, 0.015573844, -0.031462606, 0.019788094, 0.012869132, -0.049617175, -0.0627739, -0.07559354, -0.014078975, -0.029902324, 0.011706747, 0.08327906, 0.05987888, 0.11131225, -0.022905743, 0.06810559, -0.048389573, -0.030502899, 0.053942744, 0.11663729, -0.058618277, 0.07176018, -0.09445123, 0.0076841987, 0.0009505749, 0.00044217345, -0.1266379, 0.028569374, 0.011142053}, 
{0.015213658, 0.061172873, 0.043496147, -0.12402959, 0.03718946, 0.043941498, 0.07256174, -0.007954105, 0.006604214, -0.07408657, -0.01847864, -0.0039739907, 0.005529918, 0.071144834, 0.06020899, -0.046002615, 0.03632549, 0.12294564, -0.07455895, -0.056945838, 0.08764031, -0.008008357, 0.034158915, -0.06218768, -0.06329008, 0.030140867, -0.05640073, 0.076634124, -0.029594444, -0.0065737125, 0.00010210372, -0.050388806}, 
{-0.006688507, 0.02473149, -0.011277482, -0.113617614, 0.010148838, -0.036948193, 0.017056696, -0.09615323, 0.0052645444, -0.0758768, 0.021970943, -0.023591183, -0.022609182, -0.085768975, 0.021839872, -0.003903463, 0.090283975, -0.028140886, 0.07754628, -0.04324876, -0.006613203, 0.031265683, -0.006842229, 0.07420999, 0.042293977, 0.068280965, -0.098803304, -0.018165313, -0.06948522, 0.00083664944, 0.029663714, 0.07320595}, 
{-0.015359297, -0.055637807, -0.046108194, -0.046810996, -0.046355758, 0.067812204, -0.022700131, 0.047264483, 0.07758677, -0.064867124, 0.04699555, -0.077718765, 0.06610595, -0.069368124, 0.05261001, -0.07189796, 0.16156632, 0.02636063, -0.038427785, -0.015150487, 0.08089546, 0.017880553, 0.08402919, -0.018596455, 0.069781445, 0.008638611, -0.08807887, -0.04711772, 0.010591276, -0.054519776, -0.07484319, 0.046852812}, 
{-0.01539071, -0.08080626, -0.032513574, -0.10926734, -0.07334416, -0.06543677, -0.021372989, 0.02266478, -0.052944206, -0.047740683, 0.053974107, -0.070858, -0.01163359, 0.046347275, -0.014510617, 0.06427036, 0.124369375, 9.956003e-05, -0.020666005, 0.00572931, 0.03692517, -0.004898271, 0.09963101, -0.0466912, 0.00023621775, -0.013250833, -0.052438498, -0.037707284, 0.04043926, -0.113878034, -0.016398275, -0.056043122}, 
{-0.081313826, 0.032165796, -0.053103104, -0.06855972, -0.053736843, 0.053475574, 0.009655088, -0.08170017, -0.09001634, -0.055882107, -0.07977909, 0.038047083, 0.015126966, -0.0494648, -0.0005861446, -0.0642193, 0.11603004, 0.04067044, 0.063988104, -0.06910372, 0.09948609, -0.07034552, 0.0571344, -0.0638666, 0.086439006, 0.02854849, -0.08999283, -0.06191162, -0.06585598, -0.14063147, -0.03750122, 0.021292478}, 
{0.055671766, -0.0071148877, -0.037975557, -0.018784164, 0.037786134, 0.050315812, 0.04857132, -0.14821033, -0.041734837, 0.02681186, 0.014864698, 0.010493033, -0.076507755, 0.0486117, 0.03488741, 0.037680723, 0.05483091, 0.118308194, 0.07576617, 0.04422009, 0.14434856, 0.055892516, 0.08496626, -0.028481066, 0.08833822, 0.060740735, -0.07230398, -0.024011672, -0.115921505, -0.09778227, -0.14037628, -0.08331275}, 
{-0.055578522, 0.024963353, 0.07216172, -0.11468975, -0.04640806, 0.03507223, 0.08331309, -0.103424236, 0.049732827, 0.047502957, -0.05447991, 0.012603164, -0.022067823, 0.06615482, -0.023334406, 0.055477537, 0.057405613, -0.036568943, -0.0455462, -0.06406391, 0.12436135, 0.021744445, 0.043222796, 0.0018494502, 0.014412063, 0.055492807, -0.10138669, -0.0096264705, -0.0005059324, -0.11917287, 0.021024162, 0.037813224}, 
{-0.07599856, -0.012861002, 0.014328644, -0.001368543, -0.04419145, 0.07672931, -0.07637639, -0.047776707, 0.022198044, 0.05196356, 0.07296984, 0.04450059, -0.0071826354, 0.05208005, 0.0052057058, 0.043214023, 0.09033279, 0.06641189, 0.007860087, -0.06398159, 0.024035897, 0.057120286, -0.06571798, -0.027707644, 0.026287783, 0.017386157, 0.027175058, 0.019181527, 0.028027229, 0.022012986, 0.03471085, -0.025330584}, 
{-0.050268877, -0.06890436, 0.026375689, 0.0601189, 0.0865452, -0.0029254034, -0.06922727, -0.006293083, 0.077743456, 0.014297525, -0.085048266, 0.038753167, -0.039376665, -0.004455678, 0.05644241, 0.00031073636, 0.050444823, 0.015842004, -0.006067417, 0.018054143, -0.0261454, -0.017927665, 0.01706276, -0.06208826, 0.035095986, 0.00095683965, -0.036415674, -0.03119016, 0.022494942, 0.01576899, -0.002996303, 0.00041951984}, 
{0.025043776, -0.01640503, 0.053617433, 0.029701183, 0.06731525, 0.029435359, -0.020595789, 0.03814791, 0.040818367, -0.017416622, 0.05679804, 0.016185284, 0.07916081, -0.049389705, -0.045745187, 0.03528675, 0.0996915, -0.10128073, -0.044453844, -0.0495196, 0.051117897, -0.09108782, -0.01643535, -0.027373977, 0.010370893, -0.053938568, 0.08637753, -0.0713598, -0.005962148, 0.017417263, 0.014274716, -0.017358236}, 
{-0.029921697, 0.03351144, 0.04280205, 0.053505156, -0.031074535, -0.009851448, -0.03511625, 0.08093361, 0.00621738, -0.029706104, 0.029528089, 0.004995331, 0.025475673, -0.05743791, -0.083006874, -0.059461843, -0.0031844354, -0.0782783, 0.03671348, -0.041126925, -0.025184488, 0.0047790296, 0.07485779, -0.038002957, 0.047552336, 0.039627057, 0.064838946, -0.082766, -0.05088361, -0.02648996, 0.049055457, -0.052577414}, 
{-0.06790874, 0.059259817, -0.05939634, 0.07606284, -0.044664387, -0.024878234, 0.055095702, 0.023365369, -0.031023933, 0.06849458, -0.0460682, 0.06972638, -0.047474675, -0.0050616264, -0.061758332, -0.03722914, 0.052981228, 0.00028600026, 0.072281376, -0.022278965, 0.043972105, 0.0031803567, -0.07691244, -0.07455562, -0.0008036729, 0.043763544, -0.046418846, -0.047258805, 0.05777525, 0.01048936, 0.04733786, -0.06032972}, 
{-0.07805788, -0.08298837, 0.060743272, 0.081204265, 0.017178766, 0.050550357, 0.060950965, -0.037540752, 0.021936538, 0.033803467, -0.01905828, 0.04128523, -0.027710617, -0.020423278, -0.003930755, 0.016666139, -0.005007057, -0.071903296, -0.03497889, -0.05441173, -0.014430047, 0.02209683, 0.018112892, 3.7148595e-05, 0.011738469, 0.01710272, -0.005885373, 0.011490151, -0.036833383, 0.039576516, 0.07133173, -0.067566335}, 
{0.05184035, -0.07851515, 0.078238234, 0.07764719, 0.06759544, -0.004711136, 0.053158775, 0.06086271, -0.042640764, -0.013173551, 0.018511198, 0.07299696, -0.074086905, -0.05950714, 0.0015501231, 0.061650507, 0.06437252, 0.03339864, -0.07560033, -0.0103174895, 0.08160903, 0.05991116, -0.005986466, 0.017602392, -0.08897078, -0.08692586, -0.06876194, 0.08024788, 0.027712673, 0.07532866, 0.06508798, -0.011334367}, 
{0.039085865, 0.06843367, -0.0670482, -0.004261696, -0.03495557, -0.075134605, 0.01963307, -0.008037989, 0.027852423, 0.059158213, -0.05309751, -0.015502505, 0.0027000308, -0.018319592, 0.04289238, -0.030872956, -0.03236893, -0.07813058, -0.08885732, 0.059502974, 0.030524617, 0.07720668, -0.011379038, -0.009017654, 0.07234673, -0.060144797, 0.045503654, 0.05474226, -0.029452877, 0.026545238, -0.024313321, -0.018035725}, 
{-0.03254258, -0.045925163, -0.07566853, -0.001649107, -0.042756256, 0.04775709, -0.0026710853, 0.04150074, -0.07533747, -0.006728095, 0.08485758, 0.023910627, 0.03993775, -0.023875028, 0.02307836, -0.076245785, 0.0861625, 0.0733684, 0.036822062, 0.04396689, 0.08010294, -0.050866168, -0.054680947, 0.08509685, 0.010580025, -0.039943088, 0.023325825, -0.004307948, 0.049650297, -0.052735392, 0.043467723, -0.0754118}, 
{-0.04091763, -0.065727465, 0.004303694, 0.08329098, 0.07302095, -0.04372044, -0.06383346, 0.08562935, -0.075498104, 0.010143578, -0.057390217, 0.0011328161, 0.029588439, -0.04895563, 0.0036954135, -0.05574377, -0.019196138, -0.009754509, -0.05482305, -0.022036023, -0.0055572498, 0.07726178, -0.0029538746, -0.043779016, 0.07365228, 0.054574564, 0.07237153, -0.051221296, -0.015182475, 0.018358348, 0.043151285, -0.07750019}, 
{-0.022488087, 0.0762909, -0.06922306, 0.09352051, 0.035991445, -0.06571585, 0.027457893, 0.06653983, -0.08806715, 0.054605838, 0.053387523, 0.015442796, -0.07260917, 0.010686934, -0.0024750978, -0.032925986, 0.119012535, -0.09138523, -0.06792415, -0.07832909, 0.020966517, 0.07064893, -0.0869176, 0.043218583, -0.022736227, 0.00878776, -0.0028379855, 0.010119356, -0.0038545977, -0.00097070297, 0.07438705, 0.03895831}, 
{-0.002311007, 0.072016545, 0.014749549, 0.000504415, 0.0740632, -0.049072556, 0.0622997, 0.03892653, -0.044293422, 0.048988756, -0.00752376, 0.042049333, 0.065728486, -0.00064396113, 0.026509501, -0.0902147, -0.0816126, 0.004773651, 0.015216747, -0.044700313, 0.023774661, 0.07510144, -0.016402185, 0.029794872, -0.04378087, 0.07417341, 0.07046832, 0.009328485, -0.012759761, -0.0012513992, -0.009657551, -0.056868326}, 
{0.0639046, 0.014114384, 0.017312542, -0.013080607, -0.060567643, -0.080162436, -0.027187798, -0.036367398, 0.050328784, 0.02839516, -0.045237977, -0.049794976, -0.03245733, -0.072324455, -0.011631362, 0.06283036, 0.03545657, -0.059165668, 0.041897, -0.078578904, 0.0048229396, 0.06807453, -0.0055231, 0.023648746, -0.053977344, -0.0068346616, 0.070296116, -0.08251205, -0.0065378584, 0.11751591, -0.021381991, -0.020887993}, 
{-0.03366646, 0.027485374, -0.051486287, 0.071974814, -0.07223518, 0.034472726, -0.020996474, -0.014657402, -0.0782159, 0.064249754, 0.0010761172, -0.07401773, 0.027363181, 0.030316189, -0.00011779368, 0.04587114, 0.0501815, 0.05834485, -0.047368146, 0.01564423, 0.0590272, -0.011371784, -0.03328044, 0.0030663386, 0.06115227, -0.07490268, 0.07380399, -0.054311983, 0.012937806, 0.09424529, 0.0028901736, 0.039305165}, 
{-0.030325267, -0.031517934, -0.038328487, 0.10319651, 0.009762213, 0.021367058, -0.0013382807, -0.051014278, 0.055850305, -0.012062034, -0.036948957, 0.031532846, 0.020703174, 0.0489783, -0.027097445, -0.08789308, -0.06558552, 0.007730778, 0.038882542, -0.044560116, -0.030702246, 0.029213622, 0.014017034, -0.05278705, -0.030722145, -0.08382026, -0.0017716325, 0.04295525, 0.057194505, 0.051299307, -0.0004266528, -0.034367174}, 
{0.036966667, -0.053090718, -0.0030374527, 0.016147397, -0.02512392, -0.020194724, -0.054145273, -0.057443503, -0.02423248, -0.01278301, 0.0639227, -0.019336447, -0.07945529, 0.07815686, -0.024387233, 0.035891235, -0.084207274, 0.024273207, 0.017373165, -0.06597256, -0.09885304, 0.06976501, 0.029231057, 0.06848647, -0.038683075, -0.0699388, 0.07821026, -0.021145552, -0.0021321878, 0.03522197, 0.018500842, -0.08333913}, 
{-0.066231176, 0.051689416, 0.07364841, 0.08852954, 0.047554493, -0.03744599, -0.077296786, 0.088508636, -0.0027714826, -0.044664267, -0.07916513, -0.05054238, -0.060017362, -0.018449567, -0.07248615, 0.014450134, 0.009801003, -0.088858604, -0.0075665643, -0.06068494, 0.017486455, 0.06723955, -0.069900215, -0.06804983, -0.053074867, -0.044817805, 0.09886671, 0.077841, 0.0191621, 0.07910423, -0.03555632, 0.049933076}, 
{-0.02280329, 0.043891888, 0.08250503, 0.1098982, -0.041302472, 0.021121748, 0.040544167, -0.0074539054, -0.06191038, 0.06266687, 0.049325198, 0.06473251, 0.07279502, 0.06598608, -0.07919177, -0.03587497, 0.023844678, -0.07826744, -0.06285973, -0.060650792, 0.0316061, -0.054371756, 0.058161717, 0.037599728, 0.0728061, 0.04420835, 0.011223053, 0.017552182, 0.013312538, 0.014688812, 0.077680215, -0.023846433}, 
{0.0066241594, 0.06555916, -0.052481733, -0.0005023753, 0.075932205, 0.03871423, 0.08260399, 0.040739384, -0.08258192, -0.058376517, 0.07011342, -0.08367716, 0.040137455, -0.06476655, 0.07652931, 0.014857549, 0.02505146, -0.021324283, -0.0018174878, -0.0525304, -0.08137965, -0.021486353, 0.0046970663, 0.02902133, 0.04438344, 0.05820917, -0.030290319, -0.06659597, 0.0029162401, 0.0940123, -0.06180263, -0.010293864}, 
{-0.07633355, 0.039557543, -0.07404441, 0.035084013, 0.04832518, -0.019976795, -0.01172547, 0.043429367, -0.08116265, 0.042836286, 0.008076265, -0.05348994, -0.035112225, -0.07454978, -0.023312442, 0.059372403, -0.020750867, 0.0051075476, 0.07358898, 0.044928506, -0.026644722, -0.04536962, -0.07098525, -0.007603392, -0.051018927, 0.034268614, 0.02540774, 0.05512385, 0.07368191, 0.015680976, 0.031282745, -0.07084026}, 
{0.05295045, -0.058946062, -0.07104971, -0.04447968, -0.03634363, 0.04976459, -0.074835025, -0.030404732, 0.07308, -0.014350801, 0.026199661, -0.07143539, 0.0573024, -0.077678934, 0.06431472, -0.08768781, 0.05376156, -0.10703309, -0.0484877, -0.008680023, -0.002549229, 0.03324158, -0.05140623, -0.031991415, 0.067300774, 0.07691141, -0.026307797, -0.08075546, 0.017985832, 0.029608682, 0.026753703, -0.02953069}, 
{-0.08552931, 0.048307966, -0.034969714, -0.011982522, 0.03725803, 0.07306129, 0.08328289, 0.0410172, -0.001988962, -0.01310357, -0.063284956, -0.005528204, -0.084376104, 0.055029392, -0.032423507, -0.038750533, 0.04166245, -0.01635965, 0.06395828, -0.025296763, 0.045814924, -0.06707535, -0.07374665, 0.039161056, 0.019492358, 0.01629416, 0.02303541, -0.008612901, 0.09875256, 0.080441184, 0.092077576, -0.012491211}, 
{-0.021898618, 0.03596289, 0.050658956, 0.122100584, -3.5494566e-05, -0.06831378, 0.040265873, -0.012575764, -0.08239063, 0.06826872, 0.008453436, 0.018329374, -0.018490143, 0.07354921, 0.054520607, -0.08868526, 0.02739435, -0.08089468, -0.080385305, 0.034030557, 0.018541208, -0.039032754, 0.059356052, 0.017620958, 0.04534732, -0.018774958, 0.028845489, -0.03625152, 0.01824223, 0.054398946, 0.007190443, 0.038398445}, 
{-0.019422708, -0.08758509, 0.059775427, 0.06130733, 0.05854328, 0.056019157, -0.017741106, 0.06591018, -0.024102388, -0.05133006, -0.051466282, -0.06702712, 0.066541746, 0.06312068, 0.06252205, 0.06972806, 0.061002214, 0.10197518, -0.0723798, 0.06644456, -0.0048123696, -0.035611577, 0.04718113, 0.0640941, 0.071627624, 0.02788785, -0.02119486, 0.05336055, 0.051139366, -0.086382985, 0.0055485554, 0.048556}, 
{-0.08897261, -0.0076222373, 0.041650593, 0.023094343, 0.077626556, 0.0057395548, 0.043477684, -0.006284061, 0.06733337, -0.036372945, -0.022982717, 0.014783904, 0.0028954223, 0.0067722276, -0.05427389, 0.0514941, 0.15565369, 0.055891555, -0.0059734434, -0.013510935, 0.13947366, 0.05409696, 0.00031901977, 0.00797458, -0.06158658, -0.060962427, 0.029297926, -0.072659194, -0.06347758, -0.07694989, 0.022316828, 0.059191957}, 
{-0.020227931, -0.0066967704, -0.06874141, -0.101219736, -0.07251807, 0.024880052, 0.00019759685, -0.06851744, -0.033803783, -0.02815776, -0.016028337, -0.016267873, -0.030464415, -0.036177706, -0.08578572, -0.08362844, 0.13701357, 0.1315994, -0.08403941, 0.018180467, 0.0049687643, -0.054267295, 0.0823496, -0.048451558, 0.06702391, -0.03262948, 0.0100429235, 0.058604017, -0.08279977, -0.06726208, -0.001107061, -0.027306937}, 
{0.006009651, -0.0475668, 0.04213652, 0.004629516, -0.01566752, -0.08652693, -0.007398382, 0.034977887, 0.0693639, 0.056888703, 0.07883972, 0.009253144, 0.07120837, -0.009796567, -0.01964496, -0.082287505, 0.0053030564, -0.038781717, -0.04315632, 0.08260377, 0.07766107, 0.018311854, 0.0340615, 0.007933803, 0.027454728, -0.08339199, -0.001247137, 0.048915267, -0.005063729, -0.09957802, -0.07511253, 0.07851556}, 
{-0.0340172, 0.059560657, 0.08167751, 0.07474411, -0.01833807, -0.008595414, -0.030537654, 0.078953736, -0.008389382, -0.08340717, 0.025749996, 0.013082951, -0.06330197, 0.07883741, -0.077179156, 0.015782408, 0.024833065, 0.10011011, 0.035160072, -0.022605464, 0.0936267, -0.039756592, 0.06084433, 0.04002151, 0.046473093, -0.03538471, 0.067001045, -0.02851183, 0.03826388, -0.06321884, -0.0030604112, 0.034473553}, 
{0.0684093, -0.011119757, 0.039660245, -0.04219387, -0.03014731, 0.07014215, -0.050153773, 0.09065215, -0.06352013, -0.08412197, 0.078791454, 0.0012997314, -0.038227066, -0.036837727, 0.030081011, -0.06189682, -0.004700081, 0.04980896, 0.026698513, -0.045164555, 0.017428175, -0.06714814, 0.05280432, -0.06255479, 0.01269591, -0.013289638, 0.07031969, 0.06182757, -0.058460347, -0.05419122, 0.036836144, -0.07552691}, 
{-0.017037794, -0.086262316, -0.040451996, 0.01463206, 0.030162796, -0.07636281, 0.035558708, -0.044078976, -0.048895106, -0.04185402, -0.049275234, -0.075566076, 0.0059952512, -0.014937505, 0.057658374, -0.07275503, 0.018234078, 0.064539686, -0.027887449, 0.073956445, 0.04893478, -0.07214353, 0.0073897094, -0.0011301935, 0.07415402, 0.017208638, -0.00019909776, -0.03919918, -0.0082828645, -0.05103723, -0.017143067, 0.07295254}, 
{0.041846905, 0.043758694, 0.06825435, -0.03846411, -0.029858738, 0.021478638, -0.003963463, -0.077517904, -0.07946769, 0.047809713, -0.069744304, 0.068103686, 0.060076103, 0.08494218, 0.017093182, 0.07302223, 0.119696744, 0.13893667, -0.07249685, 0.067036614, 0.052610375, 0.057408385, -0.025232859, 0.025299303, 0.05405402, -0.04559069, -0.13377692, -0.056482337, -0.010173312, -0.054480433, -0.020100906, -0.031926207}, 
{-0.04227996, 0.058833376, 0.023809701, -0.0043321582, -0.02960182, 0.03088992, -0.0117081255, -0.10180352, -0.056490943, 0.01567981, 0.07803668, 0.02413562, -0.028871037, 0.017529197, 0.009005845, 0.05500477, 0.16447978, -0.028785793, -0.03652602, -0.047329504, 0.017283896, 0.050236408, 0.08105123, -0.001084581, 0.060726587, -0.021131216, -0.05802796, 0.08564228, -0.10021354, -0.048159443, -0.04483972, -0.03674475}, 
{0.007896823, 0.05906343, 0.052922517, -0.07414253, -0.05235, 0.04064709, 0.083316445, -0.037053965, 0.013313955, 0.018487088, 0.001461871, 0.07735096, -0.061808772, -0.046837118, -0.003229104, -0.009395231, 0.06598185, -0.02186931, -0.073412806, 0.054174423, 0.06457291, -0.039068904, 0.08753029, -0.083776765, -0.080853686, 0.045622945, 0.028177427, 0.03353887, 0.044115037, 0.03600422, 0.05504175, 0.013766639}, 
{-0.087746985, -0.0772058, 0.007877104, -0.047729705, 0.08598891, 0.00084370375, 0.022807874, 0.033926487, 0.028662514, 0.048957154, 0.037031278, -0.0090421215, 0.044395372, -0.020750664, -0.038367677, 0.0013373645, 0.06062852, 0.061368518, -0.010873894, 0.08268896, 0.059021104, 0.039821215, 0.031189974, -0.015701883, -0.082321264, -0.043084215, -0.01015051, -0.078084745, 0.103364035, -0.062293973, -0.013811501, 0.015993841}, 
{0.026348824, -0.045895107, -0.0055975392, -0.040322725, -0.053218998, -0.03253228, 0.086498246, 0.023524424, 0.06584886, -0.07330958, 0.07934734, 0.050520554, -0.06531151, 0.040812775, -0.02211269, -0.017605219, 0.028886007, 0.033722177, 0.012703656, 0.06680055, -0.008771677, -0.08156773, -0.024129316, -0.0028577596, -0.06423767, -0.006426118, -0.009869118, -0.0842765, 0.034603316, 0.04589534, 0.07035791, 0.0018351227}, 
{0.075065896, -0.08352196, -0.033249516, 0.08546542, 0.003277339, -0.023774475, -0.0073879138, 0.008475154, -0.066226, 0.040225796, -0.07909379, 0.06321509, -0.04216251, 0.057582006, 0.031291522, -0.03254733, 0.0071514486, -0.0841756, -0.07029857, 0.02483388, -0.06570557, 0.074851274, -0.014142266, 0.01668822, 0.010144117, -0.017774794, 0.04138867, -0.022063196, -0.010884021, -0.084451035, 0.06992595, 0.041055426}, 
{-0.017524038, -0.02785073, -0.04350126, 0.08579509, 0.049930945, 0.08476895, 0.086331874, 0.10470616, 0.07569911, 0.046341557, -0.06644132, 0.0069624484, 0.017615467, -0.08637671, -0.07280233, 0.06936561, -0.013082551, 0.006555625, -0.019442363, 0.04727322, 0.033637445, -0.02218501, -0.07335871, 0.0005437583, 0.008036446, -0.020495217, -0.030993875, -0.009009644, -0.027035499, -0.052618142, 0.08566292, 0.080841064}, 
{-0.053930346, 0.033558268, 0.029977113, -0.002116748, 0.08045125, 0.056091174, 0.040068924, 0.0520708, -0.07097799, -0.050561696, -0.0692357, -0.018453822, -0.06457795, 0.06619811, 0.061982468, -0.07267893, 0.009674904, 0.01247227, -0.0893803, 0.019614674, -0.071391135, 0.023519784, 0.042331975, 0.042030588, 0.04762081, -0.0073478348, 0.032430165, -0.019683309, 0.009280562, -0.017442258, 0.004719273, 0.08054362}, 
{-0.054526765, 0.031608157, 0.03624448, 0.03250304, -0.0094425455, -0.022681117, -0.07150735, -0.014709247, -0.06328461, -0.038661465, 0.030480586, -0.05845002, -0.027306542, -0.0862047, -0.01423239, -0.060971085, -0.025306854, -0.025211982, -0.012257404, -0.03163394, -0.010655949, 0.011925474, 0.012703316, 0.05558002, -0.020239845, 0.03422325, 0.06283599, 0.037168562, 0.0093572335, 0.065664366, -0.0028187702, 0.02730266}, 
{0.0700522, 0.038734686, 0.0053533986, 0.044504527, 0.042546555, 0.06790204, -0.036345817, -0.02805802, -0.03250378, -0.0032408175, -0.08432413, -0.05100012, -0.0102200955, 0.07947764, 0.041338235, 0.046544574, 0.08344496, -0.00257264, -0.013752792, -0.041108157, -0.031390354, -0.036347803, -0.084026106, -0.055668678, 0.06810568, 0.015505744, 0.057703905, 0.04745768, 0.0198968, -0.039071463, 0.026450643, 0.08374758}, 
{0.07333554, -0.048150625, -0.056824822, -0.06538367, -0.028949868, -0.022286914, -0.019495249, -0.036201194, -0.08773362, 0.06306956, 0.022437312, -0.019878738, -0.012836441, -0.014238663, 0.066313386, -0.019491976, -0.011642963, -0.08072302, 0.0077373395, 0.0017626882, -0.027755337, 0.04304526, -0.03634637, -0.06352371, -0.053691525, -0.08951628, -0.008319279, -0.06729936, 0.09499014, 0.04414546, -0.042280037, -0.037257165}, 
{0.06121581, -0.03051524, 0.07281692, 0.08857076, -0.07665293, -0.052531514, 0.010961734, 0.069251165, -0.07186145, -0.00533362, 0.03674473, -0.043054342, -0.0009359196, -0.07731165, 0.064475775, 0.06604483, 0.0023583833, -0.046737902, -0.06477345, 0.015914947, 0.06772236, -0.07059768, -0.07417493, -0.060921524, -0.03611926, -0.05628817, -0.06663035, 0.043825448, 0.04248074, -0.076695256, 0.010004319, -0.02789333}, 
{0.07228056, -0.07406505, -0.07287216, 0.06954568, -0.07018237, 0.07583256, 0.06507474, 0.03882567, 0.008569001, 0.0023824773, -0.008045547, 0.009203218, -0.050802667, 0.0555529, 0.0053615123, 0.063147455, 0.07310007, -0.051429685, -0.05199288, 0.06445792, -0.059955426, 0.061424535, 0.077721044, 0.064991, -0.014224011, -0.09209996, -0.0170467, 0.031826332, -0.048386052, 0.068744205, 0.034013633, 0.06522393}, 
{-0.092067786, -0.013516179, 0.00798703, -0.110327706, -0.055086643, -0.05036611, -0.07850401, 0.015778365, -0.044152714, -0.060428012, 0.08468358, 0.07178116, 0.07911517, -0.028783534, 0.023672454, -0.015277107, -0.04202249, -0.04965268, -0.03134454, 0.041320562, -0.016206428, 0.0644461, 0.02771981, -0.08658588, -0.032160208, -0.059635602, 0.030772885, 0.04271035, -0.07967813, 0.07401372, -0.07077306, -0.0060571358}, 
{0.07812015, 0.037983675, -0.029414732, 0.011417486, 0.00907632, -0.02525995, -0.035153065, -0.0053865323, -0.08025698, -0.053897966, 0.060207546, 0.04426132, -0.015466191, -0.08153191, -0.011963688, -0.022882873, 0.040841836, 0.016907793, 0.02404108, -0.05451121, -0.018896984, -0.059549905, -0.079252295, 0.07433054, -0.0019836633, -0.023388583, 0.100717366, 0.043222904, 0.048950467, 0.047875173, -0.056128647, -0.06665245}, 
{-0.07991128, 0.045712814, -0.05736123, 0.10273962, -0.08590508, -0.05792202, -0.0025093108, 0.0020360153, 0.018813299, -0.08936006, -0.018850423, -0.067506924, -0.06806384, -0.07489053, 0.03675805, 0.0061919778, -0.07964688, -0.10192519, -0.0030784754, -0.07392145, -0.079491846, 0.030063096, -0.027945967, 0.028178744, 0.042393, 0.030887695, 0.09148412, 0.0049612, -0.044877518, 0.09230354, 0.10962309, 0.06582753}, 
{-0.054990225, -0.057904225, -0.007663749, -0.06293248, 0.04332514, 0.07176541, -0.0741825, -0.011355278, -0.020652011, -0.06471151, 0.04656005, 0.034043625, 0.08028142, 0.02333565, -0.0840801, 0.0747936, 0.010277239, -0.013385932, -0.022944778, -0.057963334, 0.022367032, -0.08238318, 0.06362443, -0.06390232, 0.041266136, 0.005367043, -0.02178698, 0.0794982, -0.017245859, 0.12623696, 0.05465742, -0.012091823}, 
{-0.040732488, -0.06899673, -0.07526101, -0.058949403, 0.050923407, -0.040118515, 0.06990616, 0.07081178, -0.056078196, -0.08811981, 0.062214896, 0.0842215, 0.020216718, 0.007626973, -0.03580842, -0.05309582, -0.055788927, -0.07591135, 0.05114614, 0.06987746, -0.06168004, -0.0757096, -0.0019783447, 0.02618131, -0.06698709, 0.072980024, -0.07098585, -0.083226256, 0.0077334945, -0.039355583, 0.028400728, -0.055099174}, 
{0.0031982823, 0.04157555, 0.05879818, -0.05671093, 0.022373423, -0.004542917, 0.08300148, 0.10097489, -0.008482745, -0.08820189, 0.07956858, -0.048501153, 0.07288565, 0.046909735, -0.04664342, 0.022547223, 0.046131305, 0.014347016, -0.07661723, -0.031601854, -0.04392897, -0.0810442, 0.06854681, -0.06334388, 0.050633505, -0.048747715, 0.07112829, -0.080994144, 0.07941111, 0.014871975, 0.058675878, 0.023879588}, 
{0.07007381, -0.013039758, -0.083148085, -0.008385202, -0.042382017, -0.06943998, -0.017018832, -0.01544304, 0.057988618, -0.07791395, 0.043978885, 0.013247676, 0.07361993, -0.06771247, -0.0687881, -0.016147451, -0.07786735, -0.0062223156, -0.082643025, -0.08229011, -0.093917, 0.036443252, 0.039255325, -0.06809229, 0.0144282505, -0.047906507, 0.036069132, 0.08534294, 0.03859762, 0.0571678, 0.07498997, 0.020037018}, 
{0.026979415, -0.014311667, -0.030079957, 0.046416618, -0.0592298, -0.078971185, -0.03964521, 0.054816306, 0.067361295, -0.07104681, -0.055152714, -0.050976127, 0.051922783, 0.06546405, 0.004331276, -0.0068232864, 0.024722658, 0.0496865, -0.076219715, 0.038493708, -0.021070138, -0.043056954, -0.096622504, 0.0023481995, -0.08754423, 0.04958538, -0.0674963, 0.016683348, -0.03670735, -0.005472759, 0.03095221, 0.041757956}, 
{-0.08787064, 0.003878708, -0.07989201, 0.029676223, -0.072322845, -0.038854137, 0.02679991, -0.041876405, 0.06292921, 0.050023533, -0.06832664, 0.057711303, -0.063377686, -0.06834904, -0.07635569, 0.032412965, -0.08656074, -0.08758875, -0.07690968, 0.0024235994, 0.052001733, -0.08402395, -0.100349896, -0.0769306, -0.059658542, 0.039356843, 0.09685578, -0.007854655, 0.091920555, 0.0893812, 0.09020573, -0.022655576}, 
{0.010051516, -0.011055486, 0.054280788, -0.05402209, 0.07297817, -0.016746484, -0.014447555, 0.021445494, -0.06886016, 0.024794582, -0.012942381, -0.0008575395, 0.032704435, 0.04057665, 0.019052602, -0.05417775, -0.033552054, -0.043143548, -0.020594569, -0.08292784, 0.07122914, -0.020913204, -0.017642714, -0.037200034, -0.004622851, -0.07045267, -0.028371582, 0.046356335, -0.023912124, -0.027892167, 0.072346844, 0.028467335}, 
{-0.036710646, -0.06087937, -0.007985771, -0.0031064157, -0.055986486, -0.0084732175, -0.07023612, -0.0041752253, -0.010629299, -0.0656654, 0.023735493, 0.018854573, -0.00079698116, -0.054734476, 0.04892154, -0.011512414, -0.040356234, -0.010670764, 0.0036298237, 0.049629524, -0.059320495, -0.032638147, -0.08788108, -0.07775822, -0.03580572, 0.07431858, 0.050692644, 0.053309098, -0.036812346, 0.10557158, 0.047786884, -0.061455183}, 
{-0.08199385, -0.06814768, 0.046860263, 0.023444215, -0.047164176, 0.07136577, 0.07693748, 0.01782081, 0.048665844, -0.06796628, -0.07046194, -0.06920493, -0.07906453, -0.06468299, 0.052778497, 0.056772996, 0.08309126, 0.0032022935, -0.09175541, -0.013803616, 0.062060907, -0.026334833, 0.012123898, 0.017089255, -0.06896778, -0.02332072, -0.036538117, -0.04459476, -0.026702726, 0.03876309, 0.09195036, 0.047006622}, 
